{"learner":{"attributes":{"scikit_learn":"{\"_estimator_type\": \"regressor\"}"},"feature_names":["area","bedrooms","bathrooms","stories","mainroad","guestroom","basement","hotwaterheating","airconditioning","parking","prefarea","furnishingstatus_semi-furnished","furnishingstatus_unfurnished"],"feature_types":["float","float","float","float","int","int","int","int","int","float","int","int","int"],"gradient_booster":{"model":{"gbtree_model_param":{"num_parallel_tree":"1","num_trees":"90"},"iteration_indptr":[0,1,2,3,4,5,6,7,8,9,10,11,12,13,14,15,16,17,18,19,20,21,22,23,24,25,26,27,28,29,30,31,32,33,34,35,36,37,38,39,40,41,42,43,44,45,46,47,48,49,50,51,52,53,54,55,56,57,58,59,60,61,62,63,64,65,66,67,68,69,70,71,72,73,74,75,76,77,78,79,80,81,82,83,84,85,86,87,88,89,90],"tree_info":[0,0,0,0,0,0,0,0,0,0,0,0,0,0,0,0,0,0,0,0,0,0,0,0,0,0,0,0,0,0,0,0,0,0,0,0,0,0,0,0,0,0,0,0,0,0,0,0,0,0,0,0,0,0,0,0,0,0,0,0,0,0,0,0,0,0,0,0,0,0,0,0,0,0,0,0,0,0,0,0,0,0,0,0,0,0,0,0,0,0],"trees":[{"base_weights":[2.166024E4,-7.017247E5,1.4351325E6,-9.401194E5,4.3697312E5,6.7978056E5,2.49962E6,-1.2923E6,-4.6670656E5,-6.375069E4,1.2654448E6,1.23205695E5,1.3256955E6,1.8123374E6,2.8820625E6,-9.633914E5,-1.7102096E6,-6.955963E5,8.1312766E4,-2.536226E5,1.1863544E6,-7.0939586E4,1.8281831E6,-3.523871E5,4.4772356E5,1.04230675E6,2.3508335E6,1.5367239E6,1.5228242E5,1.8225131E6,1.7003664E5,-7.610412E4,-3.9826934E4,-3.3217586E4,-8.693785E4,-4.0219387E4,3.8538902E4,-6.292348E3,1.346205E4,-4.72811E4,-4.2410854E3,1.1333681E5,3.5324167E3,1.8836812E4,-1.1791101E4,1.27118125E4,9.740784E4,-5.10611E4,-4.417348E3,2.7820557E4,-2.8550916E4,-1.7913188E4,5.5147812E4,1.3639469E5,2.2118125E3,8.977372E4,3.1686354E4,1.35868125E4,9.645499E4],"categories":[],"categories_nodes":[],"categories_segments":[],"categories_sizes":[],"default_left":[0,0,0,0,0,0,0,0,0,0,0,0,0,0,0,0,0,0,0,0,0,0,0,0,0,0,0,0,0,0,0,0,0,0,0,0,0,0,0,0,0,0,0,0,0,0,0,0,0,0,0,0,0,0,0,0,0,0,0],"id":0,"left_children":[1,3,5,7,9,11,13,15,17,19,21,23,25,27,29,31,33,35,37,39,41,43,45,47,49,51,53,55,-1,57,-1,-1,-1,-1,-1,-1,-1,-1,-1,-1,-1,-1,-1,-1,-1,-1,-1,-1,-1,-1,-1,-1,-1,-1,-1,-1,-1,-1,-1],"loss_changes":[3.956861E14,6.9904443E13,1.0363305E14,3.4742964E13,1.8748268E13,2.7877668E13,8.970375E12,1.4984352E13,1.1596674E13,7.184321E12,1.2914281E13,6.794321E12,8.0081637E12,2.7978608E12,1.1937509E13,5.312946E12,3.9738514E11,1.0989387E13,1.1239556E12,2.956854E12,4.661413E12,5.3172594E11,1.7706925E12,3.088565E12,3.1965603E12,2.943462E12,5.9674083E12,3.5351775E12,0E0,1.6245924E12,0E0,0E0,0E0,0E0,0E0,0E0,0E0,0E0,0E0,0E0,0E0,0E0,0E0,0E0,0E0,0E0,0E0,0E0,0E0,0E0,0E0,0E0,0E0,0E0,0E0,0E0,0E0,0E0,0E0],"parents":[2147483647,0,0,1,1,2,2,3,3,4,4,5,5,6,6,7,7,8,8,9,9,10,10,11,11,12,12,13,13,14,14,15,15,16,16,17,17,18,18,19,19,20,20,21,21,22,22,23,23,24,24,25,25,26,26,27,27,29,29],"right_children":[2,4,6,8,10,12,14,16,18,20,22,24,26,28,30,32,34,36,38,40,42,44,46,48,50,52,54,56,-1,58,-1,-1,-1,-1,-1,-1,-1,-1,-1,-1,-1,-1,-1,-1,-1,-1,-1,-1,-1,-1,-1,-1,-1,-1,-1,-1,-1,-1,-1],"split_conditions":[3.917898E-1,1.4218117E0,1.4218117E0,-5.1589686E-1,1E0,1E0,1E0,1E0,1E0,1E0,-7.7049184E-1,3.5597563E-1,1.4034194E0,2.7595603E0,3.5597563E-1,1E0,-1.3719265E0,1E0,-1.6167766E-1,4.727831E-2,-7.5665516E-1,3.5597563E-1,1E0,4.727831E-2,2.6794093E0,1E0,1E0,1.2911744E0,1.5228242E5,1E0,1.7003664E5,-7.610412E4,-3.9826934E4,-3.3217586E4,-8.693785E4,-4.0219387E4,3.8538902E4,-6.292348E3,1.346205E4,-4.72811E4,-4.2410854E3,1.1333681E5,3.5324167E3,1.8836812E4,-1.1791101E4,1.27118125E4,9.740784E4,-5.10611E4,-4.417348E3,2.7820557E4,-2.8550916E4,-1.7913188E4,5.5147812E4,1.3639469E5,2.2118125E3,8.977372E4,3.1686354E4,1.35868125E4,9.645499E4],"split_indices":[0,2,2,0,8,8,8,12,8,7,0,9,1,1,9,4,0,7,0,1,0,9,4,1,9,4,11,0,0,4,0,0,0,0,0,0,0,0,0,0,0,0,0,0,0,0,0,0,0,0,0,0,0,0,0,0,0,0,0],"split_type":[0,0,0,0,0,0,0,0,0,0,0,0,0,0,0,0,0,0,0,0,0,0,0,0,0,0,0,0,0,0,0,0,0,0,0,0,0,0,0,0,0,0,0,0,0,0,0,0,0,0,0,0,0,0,0,0,0,0,0],"sum_hessian":[3.85E2,2.55E2,1.3E2,2.11E2,4.4E1,7.7E1,5.3E1,1.2E2,9.1E1,2.8E1,1.6E1,4.2E1,3.5E1,2.1E1,3.2E1,6.9E1,5.1E1,6.4E1,2.7E1,2.5E1,3E0,5E0,1.1E1,1.7E1,2.5E1,2.9E1,6E0,1.9E1,2E0,1.2E1,2E1,1.4E1,5.5E1,2E0,4.9E1,6E1,4E0,1.3E1,1.4E1,4E0,2.1E1,1E0,2E0,1E0,4E0,1E0,1E1,4E0,1.3E1,2.3E1,2E0,1E0,2.8E1,5E0,1E0,1.4E1,5E0,1E0,1.1E1],"tree_param":{"num_deleted":"0","num_feature":"13","num_nodes":"59","size_leaf_vector":"1"}},{"base_weights":[-8.1746387E3,-4.6310525E5,1.4244598E6,-8.213754E5,2.9184684E5,-7.253097E5,1.5792771E6,-1.02035094E6,6.8858406E5,-2.2148616E5,9.035469E5,1.2026612E4,-9.2637206E5,1.4385788E6,3.627155E6,-1.3144362E6,-5.6913594E5,6.506675E4,1.72055E6,-5.246753E5,3.486773E5,5.7850294E5,2.538993E6,-2.4746744E4,-5.964155E4,1.1758214E6,1.1103056E5,-1.2557163E4,2.3297578E5,-7.2344555E4,-2.6404723E4,-6.336445E4,-2.1123213E4,1.3631177E4,-3.1287975E4,3.259152E4,1.2225798E5,-3.887197E4,-2.0363926E4,1.0703203E4,4.9763E4,1.9825133E4,1.0131899E5,1.5316377E5,-1.5167513E4,4.264449E4,9.8582445E4],"categories":[],"categories_nodes":[],"categories_segments":[],"categories_sizes":[],"default_left":[0,0,0,0,0,0,0,0,0,0,0,0,0,0,0,0,0,0,0,0,0,0,0,0,0,0,0,0,0,0,0,0,0,0,0,0,0,0,0,0,0,0,0,0,0,0,0],"id":1,"left_children":[1,3,5,7,9,11,13,15,17,19,21,-1,23,25,27,29,31,33,35,37,39,41,43,-1,-1,45,-1,-1,-1,-1,-1,-1,-1,-1,-1,-1,-1,-1,-1,-1,-1,-1,-1,-1,-1,-1,-1],"loss_changes":[2.5419014E14,8.030085E13,3.2430694E13,6.1092043E13,3.034468E13,1.5821837E12,2.013776E13,2.2871758E13,1.5330816E13,9.344914E12,2.1921224E13,0E0,9.93877E10,1.4649697E13,2.1189217E13,1.0380449E13,6.8373656E12,2.4647678E12,5.37581E12,7.219456E11,1.4406839E12,9.210068E12,1.136057E13,0E0,0E0,1.5023259E13,0E0,0E0,0E0,0E0,0E0,0E0,0E0,0E0,0E0,0E0,0E0,0E0,0E0,0E0,0E0,0E0,0E0,0E0,0E0,0E0,0E0],"parents":[2147483647,0,0,1,1,2,2,3,3,4,4,5,5,6,6,7,7,8,8,9,9,10,10,12,12,13,13,14,14,15,15,16,16,17,17,18,18,19,19,20,20,21,21,22,22,25,25],"right_children":[2,4,6,8,10,12,14,16,18,20,22,-1,24,26,28,30,32,34,36,38,40,42,44,-1,-1,46,-1,-1,-1,-1,-1,-1,-1,-1,-1,-1,-1,-1,-1,-1,-1,-1,-1,-1,-1,-1,-1],"split_conditions":[1.4218117E0,1E0,4.727831E-2,1.3782169E0,3.5597563E-1,1E0,3.4138103E0,1E0,3.5597563E-1,1E0,1.4034194E0,1.2026612E4,3.5597563E-1,2.5320237E0,1E0,1.5176924E0,1E0,1.4034194E0,2.5320237E0,1E0,1.3782169E0,1E0,1.3782169E0,-2.4746744E4,-5.964155E4,1E0,1.1103056E5,-1.2557163E4,2.3297578E5,-7.2344555E4,-2.6404723E4,-6.336445E4,-2.1123213E4,1.3631177E4,-3.1287975E4,3.259152E4,1.2225798E5,-3.887197E4,-2.0363926E4,1.0703203E4,4.9763E4,1.9825133E4,1.0131899E5,1.5316377E5,-1.5167513E4,4.264449E4,9.8582445E4],"split_indices":[2,6,1,3,9,6,2,11,9,10,1,0,9,3,4,9,4,1,3,4,3,7,3,0,0,10,0,0,0,0,0,0,0,0,0,0,0,0,0,0,0,0,0,0,0,0,0],"split_type":[0,0,0,0,0,0,0,0,0,0,0,0,0,0,0,0,0,0,0,0,0,0,0,0,0,0,0,0,0,0,0,0,0,0,0,0,0,0,0,0,0,0,0,0,0,0,0],"sum_hessian":[3.88E2,2.95E2,9.3E1,2E2,9.5E1,6E0,8.7E1,1.77E2,2.3E1,5.2E1,4.3E1,1E0,5E0,8.3E1,4E0,1.06E2,7.1E1,1.5E1,8E0,3.4E1,1.8E1,3.7E1,6E0,3E0,2E0,6.4E1,1.9E1,1E0,3E0,9E1,1.6E1,1.1E1,6E1,1.2E1,3E0,4E0,4E0,9E0,2.5E1,1.6E1,2E0,3.4E1,3E0,5E0,1E0,4.7E1,1.7E1],"tree_param":{"num_deleted":"0","num_feature":"13","num_nodes":"47","size_leaf_vector":"1"}},{"base_weights":[-6.429518E3,-6.900047E5,1.3769189E6,-8.63592E5,1.469754E5,6.869907E5,2.3915768E6,-5.98266E5,-1.2639348E6,-3.069127E5,9.888296E5,2.7417903E5,1.0427721E6,2.1673185E6,2.2423917E5,-1.0052461E6,-3.9260225E5,-1.3487932E6,6.40255E4,-4.0688375E5,3.6422742E4,3.6188E5,1.5705442E6,-6.0364266E4,1.494444E6,8.950145E4,1.3080826E6,1.426613E6,1.2820939E5,-5.4009133E4,-1.0984615E4,-2.7942607E4,1.2666991E3,-7.405368E4,-3.1442178E4,-2.6729506E4,4.204189E4,-2.5801904E4,1.8852588E4,2.5540629E4,-5.3128003E3,9.43621E4,2.0681701E4,1.155803E4,-4.4547637E4,8.076562E4,1.620915E4,-3.4339583E3,3.7828176E4,5.314982E4,1.2094744E5,9.377819E3,8.2360695E4],"categories":[],"categories_nodes":[],"categories_segments":[],"categories_sizes":[],"default_left":[0,0,0,0,0,0,0,0,0,0,0,0,0,0,0,0,0,0,0,0,0,0,0,0,0,0,0,0,0,0,0,0,0,0,0,0,0,0,0,0,0,0,0,0,0,0,0,0,0,0,0,0,0],"id":2,"left_children":[1,3,5,7,9,11,13,15,17,19,21,23,25,27,-1,29,31,33,35,37,-1,39,41,43,45,47,49,51,-1,-1,-1,-1,-1,-1,-1,-1,-1,-1,-1,-1,-1,-1,-1,-1,-1,-1,-1,-1,-1,-1,-1,-1,-1],"loss_changes":[3.6312355E14,3.7466233E13,8.726223E13,2.1868967E13,1.7498327E13,1.1023138E13,1.4220435E13,1.0486473E13,9.552225E12,3.4016E12,5.266945E12,1.5194777E13,1.0252347E13,1.0452122E13,0E0,2.2939571E12,6.1285597E12,6.5922044E12,3.2395756E12,2.5905316E12,0E0,6.8176314E11,2.1504994E12,7.470068E12,6.079224E11,1.1071231E12,6.140918E12,4.884456E12,0E0,0E0,0E0,0E0,0E0,0E0,0E0,0E0,0E0,0E0,0E0,0E0,0E0,0E0,0E0,0E0,0E0,0E0,0E0,0E0,0E0,0E0,0E0,0E0,0E0],"parents":[2147483647,0,0,1,1,2,2,3,3,4,4,5,5,6,6,7,7,8,8,9,9,10,10,11,11,12,12,13,13,15,15,16,16,17,17,18,18,19,19,21,21,22,22,23,23,24,24,25,25,26,26,27,27],"right_children":[2,4,6,8,10,12,14,16,18,20,22,24,26,28,-1,30,32,34,36,38,-1,40,42,44,46,48,50,52,-1,-1,-1,-1,-1,-1,-1,-1,-1,-1,-1,-1,-1,-1,-1,-1,-1,-1,-1,-1,-1,-1,-1,-1,-1],"split_conditions":[3.917898E-1,1.4218117E0,1.4218117E0,1E0,1E0,1E0,3.4138103E0,-7.612674E-1,1.3782169E0,2.7595603E0,-2.954323E-1,1.3782169E0,5.762789E-1,1E0,2.2423917E5,1.4034194E0,1E0,1E0,1E0,-7.17392E-2,3.6422742E4,-4.7530922E-1,1E0,1E0,1.4034194E0,1.4034194E0,1.4034194E0,2.2441013E-1,1.2820939E5,-5.4009133E4,-1.0984615E4,-2.7942607E4,1.2666991E3,-7.405368E4,-3.1442178E4,-2.6729506E4,4.204189E4,-2.5801904E4,1.8852588E4,2.5540629E4,-5.3128003E3,9.43621E4,2.0681701E4,1.155803E4,-4.4547637E4,8.076562E4,1.620915E4,-3.4339583E3,3.7828176E4,5.314982E4,1.2094744E5,9.377819E3,8.2360695E4],"split_indices":[0,2,2,12,8,6,2,0,3,1,0,3,0,8,0,1,6,6,8,0,0,0,12,12,1,1,1,3,0,0,0,0,0,0,0,0,0,0,0,0,0,0,0,0,0,0,0,0,0,0,0,0,0],"split_type":[0,0,0,0,0,0,0,0,0,0,0,0,0,0,0,0,0,0,0,0,0,0,0,0,0,0,0,0,0,0,0,0,0,0,0,0,0,0,0,0,0,0,0,0,0,0,0,0,0,0,0,0,0],"sum_hessian":[3.82E2,2.56E2,1.26E2,2.12E2,4.4E1,7.6E1,5E1,1.29E2,8.3E1,2.9E1,1.5E1,3.6E1,4E1,4.7E1,3E0,4.2E1,8.7E1,7.8E1,5E0,2.7E1,2E0,8E0,7E0,2.9E1,7E0,9E0,3.1E1,1.8E1,2.9E1,3.8E1,4E0,6.2E1,2.5E1,6.5E1,1.3E1,3E0,2E0,2.4E1,3E0,6E0,2E0,5E0,2E0,2.2E1,7E0,6E0,1E0,8E0,1E0,2.7E1,4E0,3E0,1.5E1],"tree_param":{"num_deleted":"0","num_feature":"13","num_nodes":"53","size_leaf_vector":"1"}},{"base_weights":[1.6256201E4,-4.3699975E5,1.3362614E6,-7.10371E5,4.2280372E5,6.134083E5,2.0902174E6,-9.88899E5,-2.631282E4,8.823586E4,1.1943821E6,-8.726167E5,7.82852E5,1.272072E6,2.4045062E6,-6.171035E5,-1.422695E6,-4.3092847E5,6.706786E5,-1.3395878E5,8.400479E5,5.353127E5,2.2808395E6,-4.570235E5,-5.6793434E4,1.0904412E6,3.5579062E5,5.965946E5,1.617699E6,2.5043422E6,-2.4748037E4,-4.108188E4,-1.6690633E4,-7.372376E4,-3.5822277E4,-3.5692402E4,2.1881516E3,2.0502469E4,9.682349E4,5.884394E3,-3.4250996E4,5.030408E4,-2.4658062E4,1.612955E4,6.3933457E4,6.0006527E4,1.8409889E5,-2.9373266E4,-1.6424501E3,4.558443E4,8.6518305E4,9.00084E3,7.045097E4,4.583702E4,-6.792325E3,9.635038E4,4.614944E4,9.3669E3,1.28443875E5],"categories":[],"categories_nodes":[],"categories_segments":[],"categories_sizes":[],"default_left":[0,0,0,0,0,0,0,0,0,0,0,0,0,0,0,0,0,0,0,0,0,0,0,0,0,0,0,0,0,0,0,0,0,0,0,0,0,0,0,0,0,0,0,0,0,0,0,0,0,0,0,0,0,0,0,0,0,0,0],"id":3,"left_children":[1,3,5,7,9,11,13,15,17,19,21,23,25,27,29,31,33,35,37,39,41,43,45,47,-1,49,51,53,55,57,-1,-1,-1,-1,-1,-1,-1,-1,-1,-1,-1,-1,-1,-1,-1,-1,-1,-1,-1,-1,-1,-1,-1,-1,-1,-1,-1,-1,-1],"loss_changes":[2.4110062E14,7.081403E13,5.4852772E13,4.341467E13,1.8739223E13,1.42802E13,9.797995E12,2.5249962E13,1.9183929E13,8.799058E12,1.4532154E13,1.3731522E11,6.048648E12,2.7703E12,1.137106E13,4.882621E12,1.6497708E12,5.806118E12,7.453508E12,5.7661986E12,3.152451E12,1.9594333E12,7.694929E12,2.0202278E11,0E0,1.62532E12,3.8192142E12,1.7659514E12,3.7019137E11,4.6027285E12,0E0,0E0,0E0,0E0,0E0,0E0,0E0,0E0,0E0,0E0,0E0,0E0,0E0,0E0,0E0,0E0,0E0,0E0,0E0,0E0,0E0,0E0,0E0,0E0,0E0,0E0,0E0,0E0,0E0],"parents":[2147483647,0,0,1,1,2,2,3,3,4,4,5,5,6,6,7,7,8,8,9,9,10,10,11,11,12,12,13,13,14,14,15,15,16,16,17,17,18,18,19,19,20,20,21,21,22,22,23,23,25,25,26,26,27,27,28,28,29,29],"right_children":[2,4,6,8,10,12,14,16,18,20,22,24,26,28,30,32,34,36,38,40,42,44,46,48,-1,50,52,54,56,58,-1,-1,-1,-1,-1,-1,-1,-1,-1,-1,-1,-1,-1,-1,-1,-1,-1,-1,-1,-1,-1,-1,-1,-1,-1,-1,-1,-1,-1],"split_conditions":[1.4218117E0,1E0,1E0,1E0,1E0,4.727831E-2,3.5597563E-1,1E0,3.5597563E-1,1.3782169E0,1.5176924E0,3.5597563E-1,1E0,1.3782169E0,2.7595603E0,3.5597563E-1,1.5176924E0,1E0,1E0,1E0,1E0,2.7595603E0,1.4034194E0,1E0,-5.6793434E4,1E0,2.7595603E0,2.2441013E-1,1E0,4.727831E-2,-2.4748037E4,-4.108188E4,-1.6690633E4,-7.372376E4,-3.5822277E4,-3.5692402E4,2.1881516E3,2.0502469E4,9.682349E4,5.884394E3,-3.4250996E4,5.030408E4,-2.4658062E4,1.612955E4,6.3933457E4,6.0006527E4,1.8409889E5,-2.9373266E4,-1.6424501E3,4.558443E4,8.6518305E4,9.00084E3,7.045097E4,4.583702E4,-6.792325E3,9.635038E4,4.614944E4,9.3669E3,1.28443875E5],"split_indices":[2,8,8,6,5,1,9,12,9,3,9,9,6,3,1,9,9,5,7,12,7,1,1,5,0,12,1,3,12,1,0,0,0,0,0,0,0,0,0,0,0,0,0,0,0,0,0,0,0,0,0,0,0,0,0,0,0,0,0],"split_type":[0,0,0,0,0,0,0,0,0,0,0,0,0,0,0,0,0,0,0,0,0,0,0,0,0,0,0,0,0,0,0,0,0,0,0,0,0,0,0,0,0,0,0,0,0,0,0,0,0,0,0,0,0,0,0,0,0,0,0],"sum_hessian":[4.01E2,2.99E2,1.02E2,2.27E2,7.2E1,5.3E1,4.9E1,1.61E2,6.6E1,5.1E1,2.1E1,5E0,4.8E1,1.5E1,3.4E1,8.8E1,7.3E1,4.2E1,2.4E1,4E1,1.1E1,1.4E1,7E0,3E0,2E0,2.7E1,2.1E1,6E0,9E0,3.3E1,1E0,5E1,3.8E1,6.7E1,6E0,2.6E1,1.6E1,2.1E1,3E0,2.8E1,1.2E1,1E1,1E0,1.2E1,2E0,5E0,2E0,2E0,1E0,2.3E1,4E0,1.9E1,2E0,4E0,2E0,5E0,4E0,1E0,3.2E1],"tree_param":{"num_deleted":"0","num_feature":"13","num_nodes":"59","size_leaf_vector":"1"}},{"base_weights":[2.759165E3,-5.679424E5,1.1787292E6,-7.413107E5,2.5655398E5,5.5323825E5,2.0719711E6,-1.00926375E6,-3.773184E5,-1.4274806E5,1.0640799E6,9.8474766E4,1.0413127E6,2.4155988E6,1.3670241E6,-7.499842E5,-1.3787742E6,-5.780931E5,9.03483E4,2.3626611E5,-4.0092056E5,1.3337704E6,2.040065E5,-1.7507544E5,1.4912366E6,8.918247E5,1.0445021E5,1.7552019E6,1.6404114E5,1.5100836E6,5.2992168E4,-4.646184E4,-2.386951E4,-6.989296E4,-1.01362E4,-3.825442E4,2.3021807E4,1.3901643E4,-2.8302426E4,4.30157E4,-4.9692227E3,-1.220355E4,-4.1132758E4,7.719174E4,-2.4423451E4,-1.8641188E4,2.2071E4,-1.3202499E4,7.347583E4,9.892452E4,9.1034E3,2.4173059E4,5.2942355E4,4.14408E4,9.289257E4,9.2488625E4,5.6287844E4,-4.5555E3,8.529913E3],"categories":[],"categories_nodes":[],"categories_segments":[],"categories_sizes":[],"default_left":[0,0,0,0,0,0,0,0,0,0,0,0,0,0,0,0,0,0,0,0,0,0,0,0,0,0,0,0,0,0,0,0,0,0,0,0,0,0,0,0,0,0,0,0,0,0,0,0,0,0,0,0,0,0,0,0,0,0,0],"id":4,"left_children":[1,3,5,7,9,11,13,15,17,19,21,23,25,27,29,31,33,35,37,39,41,43,45,47,49,51,-1,53,-1,55,57,-1,-1,-1,-1,-1,-1,-1,-1,-1,-1,-1,-1,-1,-1,-1,-1,-1,-1,-1,-1,-1,-1,-1,-1,-1,-1,-1,-1],"loss_changes":[2.71134E14,3.9070302E13,7.260404E13,2.1564074E13,1.5629338E13,1.7432173E13,9.778751E12,1.1324982E13,9.160107E12,3.3238082E12,3.4391636E12,1.626267E13,4.0884272E12,1.4240182E13,3.6796755E12,3.36772E12,8.8373985E11,1.3557886E13,3.8532463E12,3.01797E12,1.1221913E12,5.3475677E12,8.4930835E11,5.6557904E12,4.1050618E12,1.8752964E12,0E0,5.5223884E11,0E0,2.6753368E11,6.638508E10,0E0,0E0,0E0,0E0,0E0,0E0,0E0,0E0,0E0,0E0,0E0,0E0,0E0,0E0,0E0,0E0,0E0,0E0,0E0,0E0,0E0,0E0,0E0,0E0,0E0,0E0,0E0,0E0],"parents":[2147483647,0,0,1,1,2,2,3,3,4,4,5,5,6,6,7,7,8,8,9,9,10,10,11,11,12,12,13,13,14,14,15,15,16,16,17,17,18,18,19,19,20,20,21,21,22,22,23,23,24,24,25,25,27,27,29,29,30,30],"right_children":[2,4,6,8,10,12,14,16,18,20,22,24,26,28,30,32,34,36,38,40,42,44,46,48,50,52,-1,54,-1,56,58,-1,-1,-1,-1,-1,-1,-1,-1,-1,-1,-1,-1,-1,-1,-1,-1,-1,-1,-1,-1,-1,-1,-1,-1,-1,-1,-1,-1],"split_conditions":[3.917898E-1,1.4218117E0,1.4218117E0,-5.1589686E-1,-2.9082006E-1,1E0,1E0,1E0,1E0,1E0,1E0,1.3782169E0,1.4034194E0,1.0144407E0,1.8520215E0,-7.612674E-1,1.3782169E0,1.3782169E0,1.3811721E-1,1E0,1E0,2.7595603E0,1.4034194E0,2.7595603E0,1.4034194E0,1E0,1.0445021E5,2.2441013E-1,1.6404114E5,6.7544186E-1,2.1444368E0,-4.646184E4,-2.386951E4,-6.989296E4,-1.01362E4,-3.825442E4,2.3021807E4,1.3901643E4,-2.8302426E4,4.30157E4,-4.9692227E3,-1.220355E4,-4.1132758E4,7.719174E4,-2.4423451E4,-1.8641188E4,2.2071E4,-1.3202499E4,7.347583E4,9.892452E4,9.1034E3,2.4173059E4,5.2942355E4,4.14408E4,9.289257E4,9.2488625E4,5.6287844E4,-4.5555E3,8.529913E3],"split_indices":[0,2,2,0,0,10,5,12,6,6,12,3,1,0,0,0,3,3,0,11,12,1,1,1,1,6,0,3,0,0,0,0,0,0,0,0,0,0,0,0,0,0,0,0,0,0,0,0,0,0,0,0,0,0,0,0,0,0,0],"split_type":[0,0,0,0,0,0,0,0,0,0,0,0,0,0,0,0,0,0,0,0,0,0,0,0,0,0,0,0,0,0,0,0,0,0,0,0,0,0,0,0,0,0,0,0,0,0,0,0,0,0,0,0,0,0,0,0,0,0,0],"sum_hessian":[4.02E2,2.71E2,1.31E2,2.24E2,4.7E1,7.8E1,5.3E1,1.28E2,9.6E1,3.2E1,1.5E1,4.1E1,3.7E1,3.4E1,1.9E1,7.7E1,5.1E1,6.7E1,2.9E1,1.3E1,1.9E1,1.1E1,4E0,3.5E1,6E0,3.4E1,3E0,2.1E1,1.3E1,1.7E1,2E0,4.5E1,3.2E1,5E1,1E0,5.7E1,1E1,2.3E1,6E0,4E0,9E0,1.5E1,4E0,1E1,1E0,1E0,3E0,3.4E1,1E0,4E0,2E0,1.1E1,2.3E1,3E0,1.8E1,7E0,1E1,1E0,1E0],"tree_param":{"num_deleted":"0","num_feature":"13","num_nodes":"59","size_leaf_vector":"1"}},{"base_weights":[-2.905789E4,-4.759677E5,1.0139738E6,-6.5852094E5,2.1899483E5,7.221847E5,2.151039E6,-4.057322E5,-1.1109648E6,-5.2856402E4,5.0204288E5,2.895067E5,1.6788488E6,8.424761E4,2.6350658E6,-9.9084375E5,-2.6841234E5,-1.3437274E6,6.569975E4,-1.7866219E5,2.2920195E5,8.041997E5,-3.9164375E5,9.332608E4,1.1123228E6,7.95353E5,2.402198E6,1.4683103E5,-1.973175E3,-5.6001438E4,2.0798951E4,-3.4732754E4,-2.8631929E3,-7.110075E4,-5.210785E3,-1.2417698E4,6.500073E4,3.4901118E3,-2.4189984E4,-1.6060044E4,2.5548736E4,3.4546125E4,6.456572E4,-2.9517016E4,2.49808E4,-3.5417974E3,5.4357637E4,2.3786322E4,1.21286625E5,1.031499E4,4.953998E4,1.398529E5,2.5917662E4],"categories":[],"categories_nodes":[],"categories_segments":[],"categories_sizes":[],"default_left":[0,0,0,0,0,0,0,0,0,0,0,0,0,0,0,0,0,0,0,0,0,0,0,0,0,0,0,0,0,0,0,0,0,0,0,0,0,0,0,0,0,0,0,0,0,0,0,0,0,0,0,0,0],"id":5,"left_children":[1,3,5,7,9,11,13,15,17,19,21,23,25,-1,27,29,31,33,35,37,39,41,43,45,47,49,51,-1,-1,-1,-1,-1,-1,-1,-1,-1,-1,-1,-1,-1,-1,-1,-1,-1,-1,-1,-1,-1,-1,-1,-1,-1,-1],"loss_changes":[1.864729E14,3.5667153E13,3.8260533E13,2.4939986E13,4.5664064E12,3.9664933E13,9.744039E11,1.1304077E13,2.1725085E13,1.1409714E12,8.1459313E12,1.0872788E13,1.7261683E13,0E0,8.181053E12,5.372899E12,1.0580283E13,6.2563413E12,5.7498403E12,1.701718E12,1.7150108E12,3.2173982E11,1.7116652E12,9.213332E12,9.715468E12,1.522525E12,1.0451811E13,0E0,0E0,0E0,0E0,0E0,0E0,0E0,0E0,0E0,0E0,0E0,0E0,0E0,0E0,0E0,0E0,0E0,0E0,0E0,0E0,0E0,0E0,0E0,0E0,0E0,0E0],"parents":[2147483647,0,0,1,1,2,2,3,3,4,4,5,5,6,6,7,7,8,8,9,9,10,10,11,11,12,12,14,14,15,15,16,16,17,17,18,18,19,19,20,20,21,21,22,22,23,23,24,24,25,25,26,26],"right_children":[2,4,6,8,10,12,14,16,18,20,22,24,26,-1,28,30,32,34,36,38,40,42,44,46,48,50,52,-1,-1,-1,-1,-1,-1,-1,-1,-1,-1,-1,-1,-1,-1,-1,-1,-1,-1,-1,-1,-1,-1,-1,-1,-1,-1],"split_conditions":[1E0,1E0,2.5320237E0,1E0,3.5597563E-1,1E0,1.5176924E0,1E0,1E0,1E0,1E0,1E0,3.5597563E-1,8.424761E4,1E0,1E0,4.727831E-2,1.5176924E0,2.7595603E0,1E0,4.727831E-2,1.3782169E0,1E0,1.3782169E0,1.4034194E0,1E0,1E0,1.4683103E5,-1.973175E3,-5.6001438E4,2.0798951E4,-3.4732754E4,-2.8631929E3,-7.110075E4,-5.210785E3,-1.2417698E4,6.500073E4,3.4901118E3,-2.4189984E4,-1.6060044E4,2.5548736E4,3.4546125E4,6.456572E4,-2.9517016E4,2.49808E4,-3.5417974E3,5.4357637E4,2.3786322E4,1.21286625E5,1.031499E4,4.953998E4,1.398529E5,2.5917662E4],"split_indices":[8,10,3,12,9,10,9,4,6,5,12,5,9,0,6,5,1,9,1,6,1,3,6,3,1,6,12,0,0,0,0,0,0,0,0,0,0,0,0,0,0,0,0,0,0,0,0,0,0,0,0,0,0],"split_type":[0,0,0,0,0,0,0,0,0,0,0,0,0,0,0,0,0,0,0,0,0,0,0,0,0,0,0,0,0,0,0,0,0,0,0,0,0,0,0,0,0,0,0,0,0,0,0,0,0,0,0,0,0],"sum_hessian":[3.98E2,2.79E2,1.19E2,2.21E2,5.8E1,9.6E1,2.3E1,1.43E2,7.8E1,3E1,2.8E1,6.7E1,2.9E1,1.4E1,9E0,2.6E1,1.17E2,6.5E1,1.3E1,2.1E1,9E0,2.1E1,7E0,5.5E1,1.2E1,1.4E1,1.5E1,8E0,1E0,2.4E1,2E0,3.8E1,7.9E1,6.1E1,4E0,1.1E1,2E0,1.2E1,9E0,3E0,6E0,1.9E1,2E0,6E0,1E0,4.8E1,7E0,9E0,3E0,4E0,1E1,1.2E1,3E0],"tree_param":{"num_deleted":"0","num_feature":"13","num_nodes":"53","size_leaf_vector":"1"}},{"base_weights":[3.3991E4,-3.8273972E5,1.208451E6,-5.466748E5,4.5478353E5,-6.4392844E5,1.3272208E6,-2.9451444E5,-9.8608394E5,4.0751258E4,1.004886E6,7.291488E3,-7.9985975E5,1.1001526E6,2.169132E6,-5.3662215E4,-1.747458E5,-1.1028655E6,3.4878512E5,-3.2382466E5,1.9505755E5,6.5352975E5,1.1673839E5,-4.0140662E5,-5.322553E4,6.151233E5,1.3944544E6,8.346184E4,1.3551602E5,-2.2336758E4,7.0888228E3,-5.9641258E4,-2.0280021E4,3.1601922E4,-4.08497E4,-3.2167822E3,-4.1067875E4,4.658636E3,3.0238744E4,1.0073371E4,4.059512E4,-2.6475125E4,-4.27975E2,2.579662E4,7.009958E4,2.34957E3,7.5659234E4],"categories":[],"categories_nodes":[],"categories_segments":[],"categories_sizes":[],"default_left":[0,0,0,0,0,0,0,0,0,0,0,0,0,0,0,0,0,0,0,0,0,0,0,0,0,0,0,0,0,0,0,0,0,0,0,0,0,0,0,0,0,0,0,0,0,0,0],"id":6,"left_children":[1,3,5,7,9,11,13,15,17,19,21,-1,23,25,27,-1,29,31,33,35,37,39,-1,41,-1,43,45,-1,-1,-1,-1,-1,-1,-1,-1,-1,-1,-1,-1,-1,-1,-1,-1,-1,-1,-1,-1],"loss_changes":[1.9623595E14,4.0889246E13,2.3955331E13,2.7188368E13,1.1119297E13,9.786795E11,1.6539567E13,1.4641972E13,1.441459E13,1.6945988E12,8.2866696E12,0E0,2.0540424E11,1.0561845E13,8.865752E11,0E0,1.202994E13,4.7224256E12,3.158058E12,1.1090961E12,8.20275E11,1.1251252E12,0E0,1.9675611E11,0E0,1.7742734E12,7.7681446E12,0E0,0E0,0E0,0E0,0E0,0E0,0E0,0E0,0E0,0E0,0E0,0E0,0E0,0E0,0E0,0E0,0E0,0E0,0E0,0E0],"parents":[2147483647,0,0,1,1,2,2,3,3,4,4,5,5,6,6,7,7,8,8,9,9,10,10,12,12,13,13,14,14,16,16,17,17,18,18,19,19,20,20,21,21,23,23,25,25,26,26],"right_children":[2,4,6,8,10,12,14,16,18,20,22,-1,24,26,28,-1,30,32,34,36,38,40,-1,42,-1,44,46,-1,-1,-1,-1,-1,-1,-1,-1,-1,-1,-1,-1,-1,-1,-1,-1,-1,-1,-1,-1],"split_conditions":[1.4218117E0,1E0,4.727831E-2,1E0,3.5597563E-1,1E0,2.5320237E0,1E0,1.3782169E0,4.727831E-2,1.4034194E0,7.291488E3,3.5597563E-1,3.5597563E-1,1.5176924E0,-5.3662215E4,3.5597563E-1,1.5176924E0,1.4034194E0,1E0,1.3782169E0,1.5176924E0,1.1673839E5,1E0,-5.322553E4,3.4138103E0,1E0,8.346184E4,1.3551602E5,-2.2336758E4,7.0888228E3,-5.9641258E4,-2.0280021E4,3.1601922E4,-4.08497E4,-3.2167822E3,-4.1067875E4,4.658636E3,3.0238744E4,1.0073371E4,4.059512E4,-2.6475125E4,-4.27975E2,2.579662E4,7.009958E4,2.34957E3,7.5659234E4],"split_indices":[2,5,1,12,9,6,3,4,3,1,1,0,9,9,9,0,9,9,1,12,3,9,0,5,0,2,4,0,0,0,0,0,0,0,0,0,0,0,0,0,0,0,0,0,0,0,0],"split_type":[0,0,0,0,0,0,0,0,0,0,0,0,0,0,0,0,0,0,0,0,0,0,0,0,0,0,0,0,0,0,0,0,0,0,0,0,0,0,0,0,0,0,0,0,0,0,0],"sum_hessian":[3.99E2,2.95E2,1.04E2,2.47E2,4.8E1,6E0,9.8E1,1.58E2,8.9E1,2.8E1,2E1,1E0,5E0,7.9E1,1.9E1,2E1,1.38E2,8.2E1,7E0,8E0,2E1,1.7E1,3E0,3E0,2E0,3.1E1,4.8E1,1.2E1,7E0,7.4E1,6.4E1,7.2E1,1E1,6E0,1E0,6E0,2E0,1.7E1,3E0,5E0,1.2E1,2E0,1E0,2.9E1,2E0,4E0,4.4E1],"tree_param":{"num_deleted":"0","num_feature":"13","num_nodes":"47","size_leaf_vector":"1"}},{"base_weights":[-2.0308889E4,-5.690391E5,1.1287538E6,-7.468292E5,1.0219836E5,6.165701E5,1.6640368E6,-5.28817E5,-1.0727428E6,-2.711577E5,6.6590544E5,2.1055719E5,1.1103009E6,1.331895E6,2.4019445E6,-8.468293E5,-3.299106E5,-1.2933704E6,-6.9257994E5,-5.4471125E5,1.7460223E4,8.199935E5,9.2657164E4,1.8791209E4,9.273307E5,1.451597E6,3.8882597E5,1.0081456E6,1.0690969E5,3.1712005E6,1.2803331E6,-4.8364168E4,-5.429597E3,3.4153562E4,-1.888144E4,-6.554693E4,-9.934925E3,-4.8716438E4,8.350444E3,-4.010434E4,-1.2930108E4,-6.484439E3,3.9821742E4,5.122548E4,4.16748E3,-9.672233E3,1.4203463E4,-2.5760889E4,2.1654379E4,8.102468E4,2.1309705E4,8.336175E3,7.9254914E4,4.1647152E4,5.9082095E3,2.8779297E4,7.2940055E4,7.143274E4,1.8569561E5,7.254401E4,-2.101075E3],"categories":[],"categories_nodes":[],"categories_segments":[],"categories_sizes":[],"default_left":[0,0,0,0,0,0,0,0,0,0,0,0,0,0,0,0,0,0,0,0,0,0,0,0,0,0,0,0,0,0,0,0,0,0,0,0,0,0,0,0,0,0,0,0,0,0,0,0,0,0,0,0,0,0,0,0,0,0,0,0,0],"id":7,"left_children":[1,3,5,7,9,11,13,15,17,19,21,23,25,27,29,31,33,35,37,39,41,43,45,47,49,51,53,55,-1,57,59,-1,-1,-1,-1,-1,-1,-1,-1,-1,-1,-1,-1,-1,-1,-1,-1,-1,-1,-1,-1,-1,-1,-1,-1,-1,-1,-1,-1,-1,-1],"loss_changes":[2.4969984E14,3.205928E13,3.4066875E13,1.4495984E13,1.2176982E13,1.3197109E13,1.1996448E13,7.8804765E12,6.14968E12,2.772847E12,1.9556278E12,5.20578E12,6.8226814E12,9.591132E12,1.1470314E13,4.252221E12,4.1732968E12,7.395481E11,8.1549297E12,1.1180536E12,2.1665447E12,2.6264082E12,3.8353175E11,7.081511E12,2.0883099E12,3.1663682E12,1.2238364E12,5.7881353E12,0E0,4.1510943E12,2.0906812E12,0E0,0E0,0E0,0E0,0E0,0E0,0E0,0E0,0E0,0E0,0E0,0E0,0E0,0E0,0E0,0E0,0E0,0E0,0E0,0E0,0E0,0E0,0E0,0E0,0E0,0E0,0E0,0E0,0E0,0E0],"parents":[2147483647,0,0,1,1,2,2,3,3,4,4,5,5,6,6,7,7,8,8,9,9,10,10,11,11,12,12,13,13,14,14,15,15,16,16,17,17,18,18,19,19,20,20,21,21,22,22,23,23,24,24,25,25,26,26,27,27,29,29,30,30],"right_children":[2,4,6,8,10,12,14,16,18,20,22,24,26,28,30,32,34,36,38,40,42,44,46,48,50,52,54,56,-1,58,60,-1,-1,-1,-1,-1,-1,-1,-1,-1,-1,-1,-1,-1,-1,-1,-1,-1,-1,-1,-1,-1,-1,-1,-1,-1,-1,-1,-1,-1,-1],"split_conditions":[3.917898E-1,1E0,1E0,1E0,-2.0779996E-1,2.2441013E-1,1.4034194E0,-7.612674E-1,-5.1589686E-1,-7.0592064E-1,2.0730065E-1,1.4858105E0,1E0,2.5320237E0,1.3782169E0,1.4034194E0,-7.5665516E-1,1.3782169E0,1E0,1E0,1.3782169E0,1E0,2.626474E-1,1E0,2.0830941E0,4.727831E-2,6.9158465E-1,9.2450225E-1,1.0690969E5,1E0,1E0,-4.8364168E4,-5.429597E3,3.4153562E4,-1.888144E4,-6.554693E4,-9.934925E3,-4.8716438E4,8.350444E3,-4.010434E4,-1.2930108E4,-6.484439E3,3.9821742E4,5.122548E4,4.16748E3,-9.672233E3,1.4203463E4,-2.5760889E4,2.1654379E4,8.102468E4,2.1309705E4,8.336175E3,7.9254914E4,4.1647152E4,5.9082095E3,2.8779297E4,7.2940055E4,7.143274E4,1.8569561E5,7.254401E4,-2.101075E3],"split_indices":[0,8,8,12,0,3,1,0,0,0,0,0,5,3,3,1,0,3,6,6,3,12,0,6,0,1,0,0,0,6,6,0,0,0,0,0,0,0,0,0,0,0,0,0,0,0,0,0,0,0,0,0,0,0,0,0,0,0,0,0,0],"split_type":[0,0,0,0,0,0,0,0,0,0,0,0,0,0,0,0,0,0,0,0,0,0,0,0,0,0,0,0,0,0,0,0,0,0,0,0,0,0,0,0,0,0,0,0,0,0,0,0,0,0,0,0,0,0,0,0,0,0,0,0,0],"sum_hessian":[3.94E2,2.67E2,1.27E2,2.11E2,5.6E1,6.6E1,6.1E1,1.28E2,8.3E1,3.4E1,2.2E1,3.7E1,2.9E1,4.4E1,1.7E1,4.8E1,8E1,5.1E1,3.2E1,1.7E1,1.7E1,1.7E1,5E0,3E1,7E0,1.9E1,1E1,3.3E1,1.1E1,9E0,8E0,4.1E1,7E0,3E0,7.7E1,5E1,1E0,2.4E1,8E0,8E0,9E0,1.5E1,2E0,1.3E1,4E0,2E0,3E0,1.3E1,1.7E1,2E0,5E0,2E0,1.7E1,3E0,7E0,1.8E1,1.5E1,3E0,6E0,7E0,1E0],"tree_param":{"num_deleted":"0","num_feature":"13","num_nodes":"61","size_leaf_vector":"1"}},{"base_weights":[-2.3467027E4,-3.461094E5,9.9175656E5,-5.913163E5,3.5354197E5,3.9399697E5,1.7193672E6,-3.2530212E5,-1.0308006E6,-7.7242627E3,7.059696E5,-7.447957E5,5.254002E5,-1.8035367E5,1.9740766E6,-5.7560144E5,6.489507E4,-1.1478639E6,-4.157857E5,-2.6873653E5,4.0059016E5,-4.4531555E4,8.9498656E5,-1.832652E4,-5.004421E4,3.9559178E5,1.3897619E6,-2.863975E5,8.746638E3,1.7725218E6,1.8673548E5,-5.102899E4,-2.3360879E4,-1.5864108E4,3.843391E4,-5.9261812E4,-2.7584234E4,-2.6875068E4,1.2512209E4,-3.5441984E4,-9.982378E3,2.9766373E4,-1.1596625E3,2.256963E4,-1.8386287E4,5.6128938E4,2.3799982E4,3.2302713E4,3.136705E3,9.295138E4,-2.3914162E4,4.481113E3,-2.01404E4,5.4892688E4,9.783749E4],"categories":[],"categories_nodes":[],"categories_segments":[],"categories_sizes":[],"default_left":[0,0,0,0,0,0,0,0,0,0,0,0,0,0,0,0,0,0,0,0,0,0,0,0,0,0,0,0,0,0,0,0,0,0,0,0,0,0,0,0,0,0,0,0,0,0,0,0,0,0,0,0,0,0,0],"id":8,"left_children":[1,3,5,7,9,11,13,15,17,19,21,23,25,27,29,31,33,35,37,39,41,43,45,-1,-1,47,49,51,-1,53,-1,-1,-1,-1,-1,-1,-1,-1,-1,-1,-1,-1,-1,-1,-1,-1,-1,-1,-1,-1,-1,-1,-1,-1,-1],"loss_changes":[1.3038225E14,5.201998E13,4.1076455E13,2.5852306E13,1.0063749E13,8.471933E12,2.1162738E13,1.3808272E13,5.570363E12,4.370656E12,5.714152E12,2.143617E11,4.9480907E12,2.7615586E11,6.864985E12,3.670817E12,1.5306201E13,9.0576834E11,1.3505009E12,6.186386E11,1.3342306E12,1.6085069E12,2.517115E12,0E0,0E0,3.6276787E12,6.1487993E12,2.5496384E11,0E0,2.3263204E12,0E0,0E0,0E0,0E0,0E0,0E0,0E0,0E0,0E0,0E0,0E0,0E0,0E0,0E0,0E0,0E0,0E0,0E0,0E0,0E0,0E0,0E0,0E0,0E0,0E0],"parents":[2147483647,0,0,1,1,2,2,3,3,4,4,5,5,6,6,7,7,8,8,9,9,10,10,11,11,12,12,13,13,14,14,15,15,16,16,17,17,18,18,19,19,20,20,21,21,22,22,25,25,26,26,27,27,29,29],"right_children":[2,4,6,8,10,12,14,16,18,20,22,24,26,28,30,32,34,36,38,40,42,44,46,-1,-1,48,50,52,-1,54,-1,-1,-1,-1,-1,-1,-1,-1,-1,-1,-1,-1,-1,-1,-1,-1,-1,-1,-1,-1,-1,-1,-1,-1,-1],"split_conditions":[1.4218117E0,1E0,1E0,1E0,3.5597563E-1,4.727831E-2,1E0,3.5597563E-1,1E0,1E0,4.727831E-2,3.5597563E-1,2.7595603E0,1.5176924E0,3.4138103E0,1E0,1E0,1.5176924E0,1.4034194E0,1E0,1E0,1.5176924E0,1E0,-1.832652E4,-5.004421E4,1E0,1E0,1E0,8.746638E3,3.5597563E-1,1.8673548E5,-5.102899E4,-2.3360879E4,-1.5864108E4,3.843391E4,-5.9261812E4,-2.7584234E4,-2.6875068E4,1.2512209E4,-3.5441984E4,-9.982378E3,2.9766373E4,-1.1596625E3,2.256963E4,-1.8386287E4,5.6128938E4,2.3799982E4,3.2302713E4,3.136705E3,9.295138E4,-2.3914162E4,4.481113E3,-2.01404E4,5.4892688E4,9.783749E4],"split_indices":[2,8,8,12,9,1,4,9,6,6,1,9,1,9,2,4,6,9,1,4,12,9,11,0,0,6,11,6,0,9,0,0,0,0,0,0,0,0,0,0,0,0,0,0,0,0,0,0,0,0,0,0,0,0,0],"split_type":[0,0,0,0,0,0,0,0,0,0,0,0,0,0,0,0,0,0,0,0,0,0,0,0,0,0,0,0,0,0,0,0,0,0,0,0,0,0,0,0,0,0,0,0,0,0,0,0,0,0,0,0,0,0,0],"sum_hessian":[3.96E2,3.01E2,9.5E1,2.23E2,7.8E1,5.3E1,4.2E1,1.4E2,8.3E1,3.9E1,3.9E1,5E0,4.8E1,5E0,3.7E1,8.5E1,5.5E1,6.9E1,1.4E1,2.4E1,1.5E1,8E0,3.1E1,3E0,2E0,4.3E1,5E0,4E0,1E0,3.5E1,2E0,1.5E1,7E1,3.6E1,1.9E1,6.4E1,5E0,1.2E1,2E0,2E0,2.2E1,1E1,5E0,3E0,5E0,1.9E1,1.2E1,2.4E1,1.9E1,4E0,1E0,1E0,3E0,9E0,2.6E1],"tree_param":{"num_deleted":"0","num_feature":"13","num_nodes":"55","size_leaf_vector":"1"}},{"base_weights":[3.7477E4,-4.6913122E5,1.04660256E6,-6.273958E5,2.4132897E5,5.510196E5,1.7394108E6,-8.708899E5,-3.0553097E5,-6.0234887E4,9.288894E5,3.9176578E5,1.7461308E6,1.3771305E6,2.468206E6,-1.1775126E6,-7.5012675E5,-3.8357225E5,2.6621878E5,-7.1895106E5,7.351618E4,2.4911638E5,1.4925512E6,2.7111153E5,9.650899E4,2.355388E6,3.9571238E5,9.694601E5,1.7988871E6,2.8411345E6,1.0049508E6,-6.3041164E4,3.7934001E3,-4.4343543E4,-2.68033E4,-2.2671195E4,8.933625E3,2.8646145E4,-4.224339E4,-4.3342234E4,5.12925E2,-3.362413E4,1.2480762E4,1.999443E4,-6.7733413E3,4.825375E3,8.390996E4,-7.728539E3,3.5718863E4,3.5639965E4,1.4992412E5,2.8143191E4,-2.64355E3,6.923439E4,2.877402E4,4.8734844E4,9.823744E4,7.299894E4,1.646381E5,9.823823E4,-1.4492325E4],"categories":[],"categories_nodes":[],"categories_segments":[],"categories_sizes":[],"default_left":[0,0,0,0,0,0,0,0,0,0,0,0,0,0,0,0,0,0,0,0,0,0,0,0,0,0,0,0,0,0,0,0,0,0,0,0,0,0,0,0,0,0,0,0,0,0,0,0,0,0,0,0,0,0,0,0,0,0,0,0,0],"id":9,"left_children":[1,3,5,7,9,11,13,15,17,19,21,23,25,27,29,31,33,35,37,39,41,43,45,47,-1,49,51,53,55,57,59,-1,-1,-1,-1,-1,-1,-1,-1,-1,-1,-1,-1,-1,-1,-1,-1,-1,-1,-1,-1,-1,-1,-1,-1,-1,-1,-1,-1,-1,-1],"loss_changes":[2.0344982E14,2.994819E13,4.4706315E13,1.6740675E13,1.0215777E13,1.4351684E13,1.1122489E13,3.671249E12,4.3410218E12,3.1364942E12,5.375613E12,1.2655454E13,6.4727087E12,4.961627E12,6.4215214E12,3.541515E12,2.18829E12,3.3800082E12,4.573342E12,6.559653E11,4.1089523E12,5.1804737E11,1.9114219E12,1.2752679E13,0E0,4.2007213E12,3.2968468E11,2.8021474E12,5.4559506E11,3.301622E12,6.7833E12,0E0,0E0,0E0,0E0,0E0,0E0,0E0,0E0,0E0,0E0,0E0,0E0,0E0,0E0,0E0,0E0,0E0,0E0,0E0,0E0,0E0,0E0,0E0,0E0,0E0,0E0,0E0,0E0,0E0,0E0],"parents":[2147483647,0,0,1,1,2,2,3,3,4,4,5,5,6,6,7,7,8,8,9,9,10,10,11,11,12,12,13,13,14,14,15,15,16,16,17,17,18,18,19,19,20,20,21,21,22,22,23,23,25,25,26,26,27,27,28,28,29,29,30,30],"right_children":[2,4,6,8,10,12,14,16,18,20,22,24,26,28,30,32,34,36,38,40,42,44,46,48,-1,50,52,54,56,58,60,-1,-1,-1,-1,-1,-1,-1,-1,-1,-1,-1,-1,-1,-1,-1,-1,-1,-1,-1,-1,-1,-1,-1,-1,-1,-1,-1,-1,-1,-1],"split_conditions":[3.917898E-1,1.4218117E0,1.4218117E0,-5.1589686E-1,-2.9082006E-1,1.4034194E0,1.5176924E0,1E0,1.3782169E0,4.727831E-2,3.5597563E-1,2.5320237E0,1.3782169E0,1E0,1E0,1E0,1E0,1E0,1.4034194E0,-5.352682E-1,-1.0901194E0,2.7595603E0,4.727831E-2,1E0,9.650899E4,1E0,5.024833E-1,5.089404E-1,2.2441013E-1,9.5955515E-1,9.2680836E-1,-6.3041164E4,3.7934001E3,-4.4343543E4,-2.68033E4,-2.2671195E4,8.933625E3,2.8646145E4,-4.224339E4,-4.3342234E4,5.12925E2,-3.362413E4,1.2480762E4,1.999443E4,-6.7733413E3,4.825375E3,8.390996E4,-7.728539E3,3.5718863E4,3.5639965E4,1.4992412E5,2.8143191E4,-2.64355E3,6.923439E4,2.877402E4,4.8734844E4,9.823744E4,7.299894E4,1.646381E5,9.823823E4,-1.4492325E4],"split_indices":[0,2,2,0,0,1,9,4,3,1,9,3,3,10,5,5,11,10,1,0,0,1,1,10,0,5,0,0,3,0,0,0,0,0,0,0,0,0,0,0,0,0,0,0,0,0,0,0,0,0,0,0,0,0,0,0,0,0,0,0,0],"split_type":[0,0,0,0,0,0,0,0,0,0,0,0,0,0,0,0,0,0,0,0,0,0,0,0,0,0,0,0,0,0,0,0,0,0,0,0,0,0,0,0,0,0,0,0,0,0,0,0,0,0,0,0,0,0,0,0,0,0,0,0,0],"sum_hessian":[3.96E2,2.64E2,1.32E2,2.16E2,4.8E1,7.8E1,5.4E1,1.22E2,9.4E1,3.4E1,1.4E1,7E1,8E0,3.8E1,1.6E1,3.2E1,9E1,8.3E1,1.1E1,5E0,2.9E1,7E0,7E0,6.6E1,4E0,5E0,3E0,2.1E1,1.7E1,1.2E1,4E0,3E1,2E0,5.3E1,3.7E1,7.4E1,9E0,9E0,2E0,4E0,1E0,5E0,2.4E1,5E0,2E0,1E0,6E0,3.4E1,3.2E1,2E0,3E0,2E0,1E0,9E0,1.2E1,4E0,1.3E1,4E0,8E0,2E0,2E0],"tree_param":{"num_deleted":"0","num_feature":"13","num_nodes":"61","size_leaf_vector":"1"}},{"base_weights":[6.9096064E3,-4.629062E5,9.7539975E5,-7.478561E5,-7.141361E4,4.7124566E5,1.6762231E6,-5.1750097E5,-1.1348265E6,-3.1003997E5,3.9543297E5,1.6623961E5,8.9496544E5,1.4829654E6,1.8606023E5,-6.2577225E5,8.326716E4,-1.1852385E6,-6.0542094E5,-3.7338E5,3.6765178E5,7.0742055E4,1.0393731E6,-2.4571869E5,6.268177E5,1.3120972E5,1.0661702E6,1.1181112E6,2.0386086E6,-3.468326E4,-5.6074565E3,-7.1052485E3,5.5362402E4,-6.5591875E4,-4.6170902E4,-3.2950754E4,-7.0964126E3,-2.286193E4,1.4739943E3,9.135052E4,-2.9074686E4,-6.203181E3,3.2252654E4,1.1549915E4,6.864922E4,-3.1434332E4,2.5248365E4,3.553085E4,-2.8324201E4,1.2888125E4,-1.407275E3,6.659455E4,3.4899824E4,3.170474E4,7.005086E4,3.302935E4,1.12785055E5],"categories":[],"categories_nodes":[],"categories_segments":[],"categories_sizes":[],"default_left":[0,0,0,0,0,0,0,0,0,0,0,0,0,0,0,0,0,0,0,0,0,0,0,0,0,0,0,0,0,0,0,0,0,0,0,0,0,0,0,0,0,0,0,0,0,0,0,0,0,0,0,0,0,0,0,0,0],"id":10,"left_children":[1,3,5,7,9,11,13,15,17,19,21,23,25,27,-1,29,31,33,35,37,39,41,43,45,47,49,51,53,55,-1,-1,-1,-1,-1,-1,-1,-1,-1,-1,-1,-1,-1,-1,-1,-1,-1,-1,-1,-1,-1,-1,-1,-1,-1,-1,-1,-1],"loss_changes":[1.8109126E14,2.9843543E13,4.514207E13,1.3229523E13,1.2822417E13,9.80248E12,1.5822844E13,6.4916543E12,8.036706E11,3.3995757E12,8.080651E12,8.882013E12,4.044387E12,8.059783E12,0E0,2.8514053E12,3.849773E12,4.790818E11,8.035054E10,2.3783067E12,1.0758399E13,3.100762E12,3.1887196E12,7.5046815E12,2.6025059E12,1.4842279E11,1.6139577E12,3.6303463E12,4.193918E12,0E0,0E0,0E0,0E0,0E0,0E0,0E0,0E0,0E0,0E0,0E0,0E0,0E0,0E0,0E0,0E0,0E0,0E0,0E0,0E0,0E0,0E0,0E0,0E0,0E0,0E0,0E0,0E0],"parents":[2147483647,0,0,1,1,2,2,3,3,4,4,5,5,6,6,7,7,8,8,9,9,10,10,11,11,12,12,13,13,15,15,16,16,17,17,18,18,19,19,20,20,21,21,22,22,23,23,24,24,25,25,26,26,27,27,28,28],"right_children":[2,4,6,8,10,12,14,16,18,20,22,24,26,28,-1,30,32,34,36,38,40,42,44,46,48,50,52,54,56,-1,-1,-1,-1,-1,-1,-1,-1,-1,-1,-1,-1,-1,-1,-1,-1,-1,-1,-1,-1,-1,-1,-1,-1,-1,-1,-1,-1],"split_conditions":[3.917898E-1,-5.1589686E-1,1.4218117E0,1E0,1E0,1E0,3.4138103E0,1.5176924E0,1E0,1E0,1.4218117E0,1E0,5.4168725E-1,1E0,1.8606023E5,1E0,1E0,-6.966962E-1,1.3782169E0,1.4218117E0,-3.7384018E-1,1.3782169E0,3.5597563E-1,1.4858105E0,2.6794093E0,3.5597563E-1,1.0485712E0,1E0,2.2441013E-1,-3.468326E4,-5.6074565E3,-7.1052485E3,5.5362402E4,-6.5591875E4,-4.6170902E4,-3.2950754E4,-7.0964126E3,-2.286193E4,1.4739943E3,9.135052E4,-2.9074686E4,-6.203181E3,3.2252654E4,1.1549915E4,6.864922E4,-3.1434332E4,2.5248365E4,3.553085E4,-2.8324201E4,1.2888125E4,-1.407275E3,6.659455E4,3.4899824E4,3.170474E4,7.005086E4,3.302935E4,1.12785055E5],"split_indices":[0,0,2,12,8,8,2,9,10,7,2,10,0,10,0,8,7,0,3,2,0,3,9,0,9,9,0,8,3,0,0,0,0,0,0,0,0,0,0,0,0,0,0,0,0,0,0,0,0,0,0,0,0,0,0,0,0],"split_type":[0,0,0,0,0,0,0,0,0,0,0,0,0,0,0,0,0,0,0,0,0,0,0,0,0,0,0,0,0,0,0,0,0,0,0,0,0,0,0,0,0,0,0,0,0,0,0,0,0,0,0,0,0,0,0,0,0],"sum_hessian":[3.96E2,2.67E2,1.29E2,1.54E2,1.13E2,7.6E1,5.3E1,9.8E1,5.6E1,7.5E1,3.8E1,4.5E1,3.1E1,5E1,3E0,8.3E1,1.5E1,5E1,6E0,6.9E1,6E0,2.6E1,1.2E1,2.4E1,2.1E1,6E0,2.5E1,3.2E1,1.8E1,7.3E1,1E1,1.3E1,2E0,3.1E1,1.9E1,5E0,1E0,5.7E1,1.2E1,2E0,4E0,2E1,6E0,4E0,8E0,1.6E1,8E0,2E1,1E0,3E0,3E0,1.3E1,1.2E1,1.3E1,1.9E1,3E0,1.5E1],"tree_param":{"num_deleted":"0","num_feature":"13","num_nodes":"57","size_leaf_vector":"1"}},{"base_weights":[6.362033E3,-3.104365E5,9.63224E5,-5.1469438E5,3.1218575E5,4.283286E5,1.5231482E6,-6.6864025E5,6.945924E4,1.2039326E5,8.915298E5,2.6492806E5,8.855819E5,-2.0109267E5,1.733203E6,-4.390988E5,-9.909134E5,-2.0084367E5,3.857509E5,-1.328569E4,1.0580439E6,1.7961269E5,1.7589746E6,1.2754565E5,9.9927375E5,6.09599E5,1.049344E5,-2.93309E5,6.499725E3,9.905627E5,2.0319534E6,-2.6193186E4,1.625868E4,-5.0901273E4,-1.3775101E4,-1.4083789E4,9.749315E3,2.9063498E4,-1.1625571E4,-9.150359E3,2.4192264E4,1.4518718E4,6.535184E4,-7.13895E3,2.9751926E4,3.044267E4,1.16363836E5,1.0737153E3,4.5885605E4,7.05229E4,5.896842E3,-3.5442856E3,6.5094902E4,-2.1986889E4,-7.3383687E3,6.4383977E4,2.5474584E4,7.9204836E4,1.6066017E5],"categories":[],"categories_nodes":[],"categories_segments":[],"categories_sizes":[],"default_left":[0,0,0,0,0,0,0,0,0,0,0,0,0,0,0,0,0,0,0,0,0,0,0,0,0,0,0,0,0,0,0,0,0,0,0,0,0,0,0,0,0,0,0,0,0,0,0,0,0,0,0,0,0,0,0,0,0,0,0],"id":11,"left_children":[1,3,5,7,9,11,13,15,17,19,21,23,25,27,29,31,33,35,37,39,41,43,45,47,49,51,-1,53,-1,55,57,-1,-1,-1,-1,-1,-1,-1,-1,-1,-1,-1,-1,-1,-1,-1,-1,-1,-1,-1,-1,-1,-1,-1,-1,-1,-1,-1,-1],"loss_changes":[1.1821756E14,3.74231E13,2.8399188E13,1.9920536E13,8.003976E12,3.5758707E12,1.7371222E13,1.2510527E13,4.09572E12,7.033329E12,1.0799945E13,3.8071084E12,3.0729956E12,2.2131843E11,7.305513E12,6.9078237E12,1.1160624E12,8.868129E11,2.794556E12,4.3072375E12,9.5848025E11,1.5581872E12,3.8119596E12,2.8299693E12,2.0080063E12,5.7454724E12,0E0,4.275038E10,0E0,1.3450179E12,1.0251869E13,0E0,0E0,0E0,0E0,0E0,0E0,0E0,0E0,0E0,0E0,0E0,0E0,0E0,0E0,0E0,0E0,0E0,0E0,0E0,0E0,0E0,0E0,0E0,0E0,0E0,0E0,0E0,0E0],"parents":[2147483647,0,0,1,1,2,2,3,3,4,4,5,5,6,6,7,7,8,8,9,9,10,10,11,11,12,12,13,13,14,14,15,15,16,16,17,17,18,18,19,19,20,20,21,21,22,22,23,23,24,24,25,25,27,27,29,29,30,30],"right_children":[2,4,6,8,10,12,14,16,18,20,22,24,26,28,30,32,34,36,38,40,42,44,46,48,50,52,-1,54,-1,56,58,-1,-1,-1,-1,-1,-1,-1,-1,-1,-1,-1,-1,-1,-1,-1,-1,-1,-1,-1,-1,-1,-1,-1,-1,-1,-1,-1,-1],"split_conditions":[1.4218117E0,1E0,1E0,1E0,1E0,1E0,1E0,1E0,3.5597563E-1,2.5320237E0,1.5176924E0,1E0,3.4138103E0,1.5176924E0,3.5597563E-1,1E0,1E0,1E0,1E0,1E0,3.5597563E-1,1E0,2.2441013E-1,2.5320237E0,1E0,3.5597563E-1,1.049344E5,2.2441013E-1,6.499725E3,1E0,1E0,-2.6193186E4,1.625868E4,-5.0901273E4,-1.3775101E4,-1.4083789E4,9.749315E3,2.9063498E4,-1.1625571E4,-9.150359E3,2.4192264E4,1.4518718E4,6.535184E4,-7.13895E3,2.9751926E4,3.044267E4,1.16363836E5,1.0737153E3,4.5885605E4,7.05229E4,5.896842E3,-3.5442856E3,6.5094902E4,-2.1986889E4,-7.3383687E3,6.4383977E4,2.5474584E4,7.9204836E4,1.6066017E5],"split_indices":[2,8,8,10,5,12,4,12,9,3,9,10,2,9,9,7,5,12,12,10,9,10,3,3,5,9,0,3,0,12,10,0,0,0,0,0,0,0,0,0,0,0,0,0,0,0,0,0,0,0,0,0,0,0,0,0,0,0,0],"split_type":[0,0,0,0,0,0,0,0,0,0,0,0,0,0,0,0,0,0,0,0,0,0,0,0,0,0,0,0,0,0,0,0,0,0,0,0,0,0,0,0,0,0,0,0,0,0,0,0,0,0,0,0,0,0,0,0,0,0,0],"sum_hessian":[3.88E2,2.92E2,9.6E1,2.2E2,7.2E1,5E1,4.6E1,1.74E2,4.6E1,5.5E1,1.7E1,3.8E1,1.2E1,5E0,4.1E1,1.03E2,7.1E1,2.5E1,2.1E1,4.9E1,6E0,1E1,7E0,3.3E1,5E0,1.1E1,1E0,4E0,1E0,1.3E1,2.8E1,9.3E1,1E1,6.8E1,3E0,2.1E1,4E0,1.6E1,5E0,3.7E1,1.2E1,2E0,4E0,6E0,4E0,3E0,4E0,3E1,3E0,3E0,2E0,6E0,5E0,1E0,3E0,7E0,6E0,2.2E1,6E0],"tree_param":{"num_deleted":"0","num_feature":"13","num_nodes":"59","size_leaf_vector":"1"}},{"base_weights":[2.1794414E4,-4.2684984E5,8.820913E5,-7.153995E5,-1.438525E5,3.9890906E5,1.26847E6,-5.2046806E5,-1.01507675E6,-3.6958622E5,3.4328772E5,4.4177555E4,7.639924E5,8.799564E5,1.5133666E6,-1.0640462E6,-4.1688853E5,-1.03070056E6,-6.628363E3,-1.7100702E5,-6.9162825E5,1.7348862E5,9.466078E5,-2.2051666E5,8.6582475E5,1.5713238E5,8.2560156E5,1.1502089E6,3.5620578E5,-2.0043467E5,1.5997485E6,-7.085868E4,-3.5516805E4,-2.368673E4,1.2473834E4,-5.3559324E4,-3.2027107E4,-1.2143062E4,2.4011537E4,1.10598E4,-3.6299625E4,-1.1781295E3,3.243839E4,2.3583912E4,7.1117516E4,-2.7010988E4,1.5652997E4,9.754211E4,8.950597E3,-6.4725E1,1.0518642E4,2.9510645E4,5.3532652E4,6.3413676E4,-2.7325463E4,5.028591E4,6.286575E3,-1.7114525E4,2.081925E3,4.7470688E4,9.4550414E4],"categories":[],"categories_nodes":[],"categories_segments":[],"categories_sizes":[],"default_left":[0,0,0,0,0,0,0,0,0,0,0,0,0,0,0,0,0,0,0,0,0,0,0,0,0,0,0,0,0,0,0,0,0,0,0,0,0,0,0,0,0,0,0,0,0,0,0,0,0,0,0,0,0,0,0,0,0,0,0,0,0],"id":12,"left_children":[1,3,5,7,9,11,13,15,17,19,21,23,25,27,29,31,33,35,-1,37,39,41,43,45,47,49,51,53,55,57,59,-1,-1,-1,-1,-1,-1,-1,-1,-1,-1,-1,-1,-1,-1,-1,-1,-1,-1,-1,-1,-1,-1,-1,-1,-1,-1,-1,-1,-1,-1],"loss_changes":[1.5090374E14,2.0883398E13,2.4510632E13,6.890587E12,1.4532154E13,7.86615E12,5.7090853E12,4.0043943E12,5.3897645E11,5.637303E12,4.1383882E12,7.1504563E12,9.9191724E11,3.97818E12,6.8344674E12,4.9218585E11,2.6940434E12,7.206653E10,0E0,2.7838985E12,1.227117E12,3.1995344E12,1.3626056E12,4.433773E12,5.612407E12,3.401121E10,9.255088E11,4.699571E12,1.6699004E12,1.1727093E11,6.1601323E12,0E0,0E0,0E0,0E0,0E0,0E0,0E0,0E0,0E0,0E0,0E0,0E0,0E0,0E0,0E0,0E0,0E0,0E0,0E0,0E0,0E0,0E0,0E0,0E0,0E0,0E0,0E0,0E0,0E0,0E0],"parents":[2147483647,0,0,1,1,2,2,3,3,4,4,5,5,6,6,7,7,8,8,9,9,10,10,11,11,12,12,13,13,14,14,15,15,16,16,17,17,19,19,20,20,21,21,22,22,23,23,24,24,25,25,26,26,27,27,28,28,29,29,30,30],"right_children":[2,4,6,8,10,12,14,16,18,20,22,24,26,28,30,32,34,36,-1,38,40,42,44,46,48,50,52,54,56,58,60,-1,-1,-1,-1,-1,-1,-1,-1,-1,-1,-1,-1,-1,-1,-1,-1,-1,-1,-1,-1,-1,-1,-1,-1,-1,-1,-1,-1,-1,-1],"split_conditions":[3.917898E-1,-5.860027E-1,2.2441013E-1,1E0,1E0,1E0,1E0,-1.2224903E0,1.3782169E0,1E0,1E0,1.4858105E0,4.886466E-1,1E0,1E0,1E0,1E0,1E0,-6.628363E3,1E0,-5.6294155E-1,1.3782169E0,3.5597563E-1,1.5176924E0,1.7570095E0,4.1485095E-1,1E0,2.6794093E0,4.0101427E-1,6.2240124E-1,3.5597563E-1,-7.085868E4,-3.5516805E4,-2.368673E4,1.2473834E4,-5.3559324E4,-3.2027107E4,-1.2143062E4,2.4011537E4,1.10598E4,-3.6299625E4,-1.1781295E3,3.243839E4,2.3583912E4,7.1117516E4,-2.7010988E4,1.5652997E4,9.754211E4,8.950597E3,-6.4725E1,1.0518642E4,2.9510645E4,5.3532652E4,6.3413676E4,-2.7325463E4,5.028591E4,6.286575E3,-1.7114525E4,2.081925E3,4.7470688E4,9.4550414E4],"split_indices":[0,0,3,12,8,10,8,0,3,12,10,0,0,5,4,10,7,8,0,7,0,3,9,9,0,0,8,9,0,0,9,0,0,0,0,0,0,0,0,0,0,0,0,0,0,0,0,0,0,0,0,0,0,0,0,0,0,0,0,0,0],"split_type":[0,0,0,0,0,0,0,0,0,0,0,0,0,0,0,0,0,0,0,0,0,0,0,0,0,0,0,0,0,0,0,0,0,0,0,0,0,0,0,0,0,0,0,0,0,0,0,0,0,0,0,0,0,0,0,0,0,0,0,0,0],"sum_hessian":[3.89E2,2.56E2,1.33E2,1.26E2,1.3E2,6E1,7.3E1,7.8E1,4.8E1,8.9E1,4.1E1,3.1E1,2.9E1,3E1,4.3E1,1.1E1,6.7E1,4.7E1,1E0,5.6E1,3.3E1,3.3E1,8E0,2.4E1,7E0,3E0,2.6E1,1.9E1,1.1E1,2E0,4.1E1,4E0,7E0,6.2E1,5E0,4.1E1,6E0,5.1E1,5E0,1E0,3.2E1,2.4E1,9E0,5E0,3E0,1.5E1,9E0,2E0,5E0,1E0,2E0,1.5E1,1.1E1,1.8E1,1E0,2E0,9E0,1E0,1E0,1.4E1,2.7E1],"tree_param":{"num_deleted":"0","num_feature":"13","num_nodes":"61","size_leaf_vector":"1"}},{"base_weights":[1.2308615E4,-4.3800888E5,9.0592094E5,-6.767505E5,-1.207497E5,4.7187888E5,1.4892169E6,-5.02626E5,-9.428659E5,-3.2184647E5,2.7932947E5,1.680449E5,8.229974E5,1.3103189E6,1.7212928E5,-5.579706E5,2.4121964E5,-9.8007644E5,-2.6853244E4,-5.28339E5,6.481948E4,1.00329805E5,9.3803694E5,-2.0270661E5,6.275182E5,4.9099244E5,1.3470832E6,9.1336075E5,7.748814E4,-3.2209941E4,-7.2924634E3,-1.1298362E4,1.7837268E4,-5.3768832E4,-3.8148605E4,-2.002363E4,-3.468609E4,1.0018097E4,-1.7553389E4,-7.3001265E3,1.5589007E4,6.0952195E4,1.7613451E4,-2.1484557E4,1.524869E4,1.6886125E4,3.676457E4,1.4640111E4,4.129994E4,7.369499E4,-4.367863E3,6.98118E4,1.5177752E4],"categories":[],"categories_nodes":[],"categories_segments":[],"categories_sizes":[],"default_left":[0,0,0,0,0,0,0,0,0,0,0,0,0,0,0,0,0,0,0,0,0,0,0,0,0,0,0,0,0,0,0,0,0,0,0,0,0,0,0,0,0,0,0,0,0,0,0,0,0,0,0,0,0],"id":13,"left_children":[1,3,5,7,9,11,13,15,17,19,21,23,25,27,-1,29,31,33,-1,35,37,39,41,43,45,47,49,51,-1,-1,-1,-1,-1,-1,-1,-1,-1,-1,-1,-1,-1,-1,-1,-1,-1,-1,-1,-1,-1,-1,-1,-1,-1],"loss_changes":[1.5612916E14,1.9459968E13,3.2210015E13,6.3376646E12,9.100821E12,7.969512E12,1.4709055E13,3.8808679E12,3.3434055E11,6.0225193E12,4.3864065E12,7.28192E12,5.42856E12,3.5270657E12,0E0,2.926647E12,4.5841737E11,2.3470906E11,0E0,7.5838154E11,1.5923408E12,1.6602193E12,8.874083E11,2.8966988E12,3.450869E11,1.2852307E12,2.4935955E12,6.054285E12,0E0,0E0,0E0,0E0,0E0,0E0,0E0,0E0,0E0,0E0,0E0,0E0,0E0,0E0,0E0,0E0,0E0,0E0,0E0,0E0,0E0,0E0,0E0,0E0,0E0],"parents":[2147483647,0,0,1,1,2,2,3,3,4,4,5,5,6,6,7,7,8,8,9,9,10,10,11,11,12,12,13,13,15,15,16,16,17,17,19,19,20,20,21,21,22,22,23,23,24,24,25,25,26,26,27,27],"right_children":[2,4,6,8,10,12,14,16,18,20,22,24,26,28,-1,30,32,34,-1,36,38,40,42,44,46,48,50,52,-1,-1,-1,-1,-1,-1,-1,-1,-1,-1,-1,-1,-1,-1,-1,-1,-1,-1,-1,-1,-1,-1,-1,-1,-1],"split_conditions":[3.917898E-1,-5.1589686E-1,1.4218117E0,1E0,1E0,1E0,3.4138103E0,1E0,1E0,1E0,1E0,1E0,1E0,1E0,1.7212928E5,-6.9208395E-1,-1.3262655E0,-6.966962E-1,-2.6853244E4,1E0,-5.098417E-2,-1.6167766E-1,1E0,1.4858105E0,1E0,1E0,1.383419E0,1E0,7.748814E4,-3.2209941E4,-7.2924634E3,-1.1298362E4,1.7837268E4,-5.3768832E4,-3.8148605E4,-2.002363E4,-3.468609E4,1.0018097E4,-1.7553389E4,-7.3001265E3,1.5589007E4,6.0952195E4,1.7613451E4,-2.1484557E4,1.524869E4,1.6886125E4,3.676457E4,1.4640111E4,4.129994E4,7.369499E4,-4.367863E3,6.98118E4,1.5177752E4],"split_indices":[0,0,2,12,8,8,2,5,10,6,10,10,5,8,0,0,0,0,0,12,0,0,12,0,6,10,0,5,0,0,0,0,0,0,0,0,0,0,0,0,0,0,0,0,0,0,0,0,0,0,0,0,0],"split_type":[0,0,0,0,0,0,0,0,0,0,0,0,0,0,0,0,0,0,0,0,0,0,0,0,0,0,0,0,0,0,0,0,0,0,0,0,0,0,0,0,0,0,0,0,0,0,0,0,0,0,0,0,0],"sum_hessian":[3.86E2,2.57E2,1.29E2,1.46E2,1.11E2,7.5E1,5.4E1,9E1,5.6E1,7.4E1,3.7E1,4.1E1,3.4E1,5.1E1,3E0,8.4E1,6E0,5E1,6E0,4.8E1,2.6E1,3E1,7E0,2.3E1,1.8E1,2.2E1,1.2E1,2.1E1,3E1,6.9E1,1.5E1,1E0,5E0,3.2E1,1.8E1,2.9E1,1.9E1,2E1,6E0,1.4E1,1.6E1,4E0,3E0,1.6E1,7E0,6E0,1.2E1,1.5E1,7E0,1.1E1,1E0,1.1E1,1E1],"tree_param":{"num_deleted":"0","num_feature":"13","num_nodes":"53","size_leaf_vector":"1"}},{"base_weights":[1.2591788E4,-2.8630422E5,7.2203544E5,-6.714338E5,-9.005022E4,2.0926114E5,1.0486866E6,-8.35469E5,-1.718563E5,-3.5653738E5,2.69837E5,-1.7568492E4,7.289838E5,4.18185E5,1.3483324E6,-9.137124E5,-2.1232294E5,-2.605233E5,4.6687125E4,-4.029501E5,4.7643072E5,1.142963E5,1.1157861E6,-3.347777E5,7.4549044E5,8.4484006E5,-1.9428701E4,1.5753375E5,8.351E5,1.0217046E6,2.1239968E6,-4.889351E4,-3.5306008E4,-2.3959035E4,4.84997E3,-2.9960422E4,4.9936045E3,-2.6320453E4,4.9684946E2,3.7548445E4,-2.24065E4,1.2340721E3,4.3944887E4,3.1763973E4,9.589898E4,-2.75155E4,1.0999263E3,2.3577426E4,4.6256137E4,2.89108E4,5.2976605E4,-1.0548401E3,7.0924805E4,1.367307E4,6.1485934E4,6.726337E4,1.853274E4,6.87372E4,1.3845006E5],"categories":[],"categories_nodes":[],"categories_segments":[],"categories_sizes":[],"default_left":[0,0,0,0,0,0,0,0,0,0,0,0,0,0,0,0,0,0,0,0,0,0,0,0,0,0,0,0,0,0,0,0,0,0,0,0,0,0,0,0,0,0,0,0,0,0,0,0,0,0,0,0,0,0,0,0,0,0,0],"id":14,"left_children":[1,3,5,7,9,11,13,15,17,19,21,23,25,27,29,31,33,35,-1,37,39,41,43,45,47,49,-1,51,53,55,57,-1,-1,-1,-1,-1,-1,-1,-1,-1,-1,-1,-1,-1,-1,-1,-1,-1,-1,-1,-1,-1,-1,-1,-1,-1,-1,-1,-1],"loss_changes":[8.2270015E13,2.0573757E13,1.9042862E13,7.395661E12,1.7550975E13,5.4356785E12,1.2661035E13,3.1702353E12,2.5959853E12,4.2513098E12,1.0135672E13,8.2372015E12,2.1409473E12,2.4765092E12,9.737521E12,1.21945194E11,7.8938584E11,2.8672367E12,0E0,5.1026917E12,1.8594947E12,4.569124E12,3.4070573E12,1.8576289E12,5.584768E10,1.3150821E11,0E0,3.6338677E12,1.6584168E12,6.874309E12,2.475864E12,0E0,0E0,0E0,0E0,0E0,0E0,0E0,0E0,0E0,0E0,0E0,0E0,0E0,0E0,0E0,0E0,0E0,0E0,0E0,0E0,0E0,0E0,0E0,0E0,0E0,0E0,0E0,0E0],"parents":[2147483647,0,0,1,1,2,2,3,3,4,4,5,5,6,6,7,7,8,8,9,9,10,10,11,11,12,12,13,13,14,14,15,15,16,16,17,17,19,19,20,20,21,21,22,22,23,23,24,24,25,25,27,27,28,28,29,29,30,30],"right_children":[2,4,6,8,10,12,14,16,18,20,22,24,26,28,30,32,34,36,-1,38,40,42,44,46,48,50,-1,52,54,56,58,-1,-1,-1,-1,-1,-1,-1,-1,-1,-1,-1,-1,-1,-1,-1,-1,-1,-1,-1,-1,-1,-1,-1,-1,-1,-1,-1,-1],"split_conditions":[1E0,4.727831E-2,3.5597563E-1,1E0,3.5597563E-1,1.3782169E0,2.2441013E-1,1E0,1E0,2.7595603E0,1E0,1E0,1E0,1E0,1E0,1E0,2.2441013E-1,1E0,4.6687125E4,1E0,1E0,1.3782169E0,1E0,1E0,2.2441013E-1,1E0,-1.9428701E4,1E0,1E0,1E0,1E0,-4.889351E4,-3.5306008E4,-2.3959035E4,4.84997E3,-2.9960422E4,4.9936045E3,-2.6320453E4,4.9684946E2,3.7548445E4,-2.24065E4,1.2340721E3,4.3944887E4,3.1763973E4,9.589898E4,-2.75155E4,1.0999263E3,2.3577426E4,4.6256137E4,2.89108E4,5.2976605E4,-1.0548401E3,7.0924805E4,1.367307E4,6.1485934E4,6.726337E4,1.853274E4,6.87372E4,1.3845006E5],"split_indices":[8,1,9,6,9,3,3,10,7,1,7,10,7,10,10,11,3,5,0,10,11,3,6,6,3,11,0,5,11,11,6,0,0,0,0,0,0,0,0,0,0,0,0,0,0,0,0,0,0,0,0,0,0,0,0,0,0,0,0],"split_type":[0,0,0,0,0,0,0,0,0,0,0,0,0,0,0,0,0,0,0,0,0,0,0,0,0,0,0,0,0,0,0,0,0,0,0,0,0,0,0,0,0,0,0,0,0,0,0,0,0,0,0,0,0,0,0,0,0,0,0],"sum_hessian":[3.86E2,2.72E2,1.14E2,9.1E1,1.81E2,4.5E1,6.9E1,6.8E1,2.3E1,1.04E2,7.7E1,3.2E1,1.3E1,2.3E1,4.6E1,6E1,8E0,2.2E1,1E0,9.9E1,5E0,6.6E1,1.1E1,2.3E1,9E0,1.2E1,1E0,1.5E1,8E0,3.4E1,1.2E1,4.3E1,1.7E1,4E0,4E0,1.1E1,1.1E1,7.6E1,2.3E1,4E0,1E0,6E1,6E0,8E0,3E0,1.4E1,9E0,5E0,4E0,7E0,5E0,1.4E1,1E0,4E0,4E0,2.2E1,1.2E1,7E0,5E0],"tree_param":{"num_deleted":"0","num_feature":"13","num_nodes":"59","size_leaf_vector":"1"}},{"base_weights":[5.018916E4,-3.6379897E5,8.747014E5,-4.793587E5,2.0181097E5,4.740467E5,1.4076201E6,-6.9934975E5,-2.4901008E5,-3.7416294E5,4.1610066E5,3.318354E5,1.6769158E6,1.2434572E6,1.635957E5,-9.833609E5,-5.7998744E5,-5.0138444E5,-1.0332014E5,-1.5868778E5,-5.361862E5,1.023624E5,3.0463412E5,8.067816E4,5.73775E5,4.47884E5,1.0059728E5,7.9677394E5,1.549165E6,-5.2314484E4,-1.4064335E4,-4.172089E4,-2.0857713E4,-2.8816928E4,-8.958578E3,-9.552482E3,1.9628627E4,-2.004452E4,6.1593374E3,-2.9690834E4,-4.7600874E3,-3.1472175E3,4.0399336E4,-2.4333748E4,2.1125791E4,3.5550027E4,1.3814958E4,2.74436E4,6.1477E3,4.405245E4,-2.853875E4,4.954021E4,9.0336164E4],"categories":[],"categories_nodes":[],"categories_segments":[],"categories_sizes":[],"default_left":[0,0,0,0,0,0,0,0,0,0,0,0,0,0,0,0,0,0,0,0,0,0,0,0,0,0,0,0,0,0,0,0,0,0,0,0,0,0,0,0,0,0,0,0,0,0,0,0,0,0,0,0,0],"id":15,"left_children":[1,3,5,7,9,11,13,15,17,19,21,23,25,27,-1,29,31,33,35,37,39,-1,41,43,45,47,-1,49,51,-1,-1,-1,-1,-1,-1,-1,-1,-1,-1,-1,-1,-1,-1,-1,-1,-1,-1,-1,-1,-1,-1,-1,-1],"loss_changes":[1.3685352E14,1.7548318E13,2.7943921E13,1.1075626E13,5.8332514E12,1.2786339E13,1.3376239E13,3.2603877E12,3.9927216E12,3.6876976E11,5.5581616E12,4.2680173E12,2.3929826E12,6.1396054E12,0E0,1.1194765E12,3.0491583E12,8.6278406E11,3.1638144E12,5.272796E11,1.2136638E11,0E0,6.1565693E12,7.1875633E12,1.273116E12,3.095606E10,0E0,3.2688843E12,2.668022E12,0E0,0E0,0E0,0E0,0E0,0E0,0E0,0E0,0E0,0E0,0E0,0E0,0E0,0E0,0E0,0E0,0E0,0E0,0E0,0E0,0E0,0E0,0E0,0E0],"parents":[2147483647,0,0,1,1,2,2,3,3,4,4,5,5,6,6,7,7,8,8,9,9,10,10,11,11,12,12,13,13,15,15,16,16,17,17,18,18,19,19,20,20,22,22,23,23,24,24,25,25,27,27,28,28],"right_children":[2,4,6,8,10,12,14,16,18,20,22,24,26,28,-1,30,32,34,36,38,40,-1,42,44,46,48,-1,50,52,-1,-1,-1,-1,-1,-1,-1,-1,-1,-1,-1,-1,-1,-1,-1,-1,-1,-1,-1,-1,-1,-1,-1,-1],"split_conditions":[3.917898E-1,1.4218117E0,1.4218117E0,-5.860027E-1,-7.7049184E-1,1.4034194E0,3.4138103E0,1E0,4.727831E-2,1E0,-7.5665516E-1,1E0,5.024833E-1,1E0,1.635957E5,-7.5665516E-1,4.727831E-2,1.1505607E-1,1.5176924E0,-1.0901194E0,1.5176924E0,1.023624E5,1E0,3.5597563E-1,1.0467263E0,4.0101427E-1,1.0059728E5,2.6794093E0,3.5597563E-1,-5.2314484E4,-1.4064335E4,-4.172089E4,-2.0857713E4,-2.8816928E4,-8.958578E3,-9.552482E3,1.9628627E4,-2.004452E4,6.1593374E3,-2.9690834E4,-4.7600874E3,-3.1472175E3,4.0399336E4,-2.4333748E4,2.1125791E4,3.5550027E4,1.3814958E4,2.74436E4,6.1477E3,4.405245E4,-2.853875E4,4.954021E4,9.0336164E4],"split_indices":[0,2,2,0,0,1,2,4,1,4,0,10,0,8,0,0,1,0,9,0,9,0,8,9,0,0,0,9,9,0,0,0,0,0,0,0,0,0,0,0,0,0,0,0,0,0,0,0,0,0,0,0,0],"split_type":[0,0,0,0,0,0,0,0,0,0,0,0,0,0,0,0,0,0,0,0,0,0,0,0,0,0,0,0,0,0,0,0,0,0,0,0,0,0,0,0,0,0,0,0,0,0,0,0,0,0,0,0,0],"sum_hessian":[3.99E2,2.66E2,1.33E2,2.21E2,4.5E1,7.7E1,5.6E1,1.12E2,1.09E2,1.2E1,3.3E1,7E1,7E0,5.3E1,3E0,3.1E1,8.1E1,3.9E1,7E1,6E0,6E0,1E0,3.2E1,3.5E1,3.5E1,2E0,5E0,2.3E1,3E1,2.8E1,3E0,3E1,5.1E1,3.1E1,8E0,6E1,1E1,3E0,3E0,5E0,1E0,1.9E1,1.3E1,1.3E1,2.2E1,2.3E1,1.2E1,1E0,1E0,2.2E1,1E0,1.1E1,1.9E1],"tree_param":{"num_deleted":"0","num_feature":"13","num_nodes":"53","size_leaf_vector":"1"}},{"base_weights":[1.8461617E4,-3.6886088E5,8.7239956E5,-5.9670656E5,-7.1211945E4,5.1020375E5,1.3475379E6,-4.035626E5,-8.9990994E5,-2.4925214E5,2.72999E5,3.822472E5,1.422097E6,1.0958998E6,1.7004264E6,-5.0816466E5,4.8888266E4,-1.0770762E6,-7.5359425E5,-3.8773072E5,2.8562078E5,1.4148769E5,1.3883511E6,2.9433597E5,7.806991E4,1.9281144E6,-6.3970168E4,1.191556E6,-2.2596183E5,2.347208E6,1.01665706E6,-4.385426E4,-2.0758191E4,-1.2238243E4,3.3849434E4,-5.5151684E4,-1.2650369E4,-3.907456E4,-1.0241463E4,-2.8481938E4,-7.2150493E3,2.400833E4,-3.5873336E4,-1.3267108E4,1.158492E4,8.326467E4,1.3938112E4,7.930178E3,3.3643094E4,-6.2576753E3,1.1818994E5,5.9940127E3,-1.0791775E4,3.9354402E4,7.087371E4,1.0878138E4,-2.7825275E4,1.3211094E5,4.382236E4,6.8184805E4,3.4207563E3],"categories":[],"categories_nodes":[],"categories_segments":[],"categories_sizes":[],"default_left":[0,0,0,0,0,0,0,0,0,0,0,0,0,0,0,0,0,0,0,0,0,0,0,0,0,0,0,0,0,0,0,0,0,0,0,0,0,0,0,0,0,0,0,0,0,0,0,0,0,0,0,0,0,0,0,0,0,0,0,0,0],"id":16,"left_children":[1,3,5,7,9,11,13,15,17,19,21,23,25,27,29,31,33,35,37,39,41,43,45,47,-1,49,51,53,55,57,59,-1,-1,-1,-1,-1,-1,-1,-1,-1,-1,-1,-1,-1,-1,-1,-1,-1,-1,-1,-1,-1,-1,-1,-1,-1,-1,-1,-1,-1,-1],"loss_changes":[1.24022054E14,1.7454556E13,1.9447377E13,8.186866E12,6.993068E12,7.3908313E12,2.576519E12,4.3316287E12,6.399669E11,5.6658766E12,5.5241416E12,5.863721E12,6.1391493E12,4.3154607E12,6.0164355E12,2.174799E12,3.4856887E12,2.1290707E11,3.6042703E11,2.5747102E12,3.4668473E12,1.3826939E12,7.649467E11,2.8732188E12,0E0,5.663298E12,1.0963593E11,1.62562E12,5.6088756E11,1.589247E12,3.5265467E12,0E0,0E0,0E0,0E0,0E0,0E0,0E0,0E0,0E0,0E0,0E0,0E0,0E0,0E0,0E0,0E0,0E0,0E0,0E0,0E0,0E0,0E0,0E0,0E0,0E0,0E0,0E0,0E0,0E0,0E0],"parents":[2147483647,0,0,1,1,2,2,3,3,4,4,5,5,6,6,7,7,8,8,9,9,10,10,11,11,12,12,13,13,14,14,15,15,16,16,17,17,18,18,19,19,20,20,21,21,22,22,23,23,25,25,26,26,27,27,28,28,29,29,30,30],"right_children":[2,4,6,8,10,12,14,16,18,20,22,24,26,28,30,32,34,36,38,40,42,44,46,48,-1,50,52,54,56,58,60,-1,-1,-1,-1,-1,-1,-1,-1,-1,-1,-1,-1,-1,-1,-1,-1,-1,-1,-1,-1,-1,-1,-1,-1,-1,-1,-1,-1,-1,-1],"split_conditions":[3.917898E-1,-5.1589686E-1,1.4218117E0,1E0,1E0,1.4034194E0,1.0144407E0,1.4218117E0,4.727831E-2,1.3782169E0,1E0,2.5320237E0,1.3782169E0,2.6794093E0,1.3050112E0,-1.2224903E0,1.5176924E0,1.5176924E0,-5.860027E-1,-1.4322874E-1,1.4034194E0,-4.7530922E-1,-3.7384018E-1,1.544847E0,7.806991E4,1E0,5.024833E-1,3.5597563E-1,9.5955515E-1,2.5320237E0,1E0,-4.385426E4,-2.0758191E4,-1.2238243E4,3.3849434E4,-5.5151684E4,-1.2650369E4,-3.907456E4,-1.0241463E4,-2.8481938E4,-7.2150493E3,2.400833E4,-3.5873336E4,-1.3267108E4,1.158492E4,8.326467E4,1.3938112E4,7.930178E3,3.3643094E4,-6.2576753E3,1.1818994E5,5.9940127E3,-1.0791775E4,3.9354402E4,7.087371E4,1.0878138E4,-2.7825275E4,1.3211094E5,4.382236E4,6.8184805E4,3.4207563E3],"split_indices":[0,0,2,12,6,1,0,2,1,3,7,3,3,9,0,0,9,9,0,0,1,0,0,0,0,6,0,9,0,3,11,0,0,0,0,0,0,0,0,0,0,0,0,0,0,0,0,0,0,0,0,0,0,0,0,0,0,0,0,0,0],"split_type":[0,0,0,0,0,0,0,0,0,0,0,0,0,0,0,0,0,0,0,0,0,0,0,0,0,0,0,0,0,0,0,0,0,0,0,0,0,0,0,0,0,0,0,0,0,0,0,0,0,0,0,0,0,0,0,0,0,0,0,0,0],"sum_hessian":[3.73E2,2.57E2,1.16E2,1.45E2,1.12E2,6.7E1,4.9E1,9E1,5.5E1,7.4E1,3.8E1,6E1,7E0,3.1E1,1.8E1,7.3E1,1.7E1,2.2E1,3.3E1,5.9E1,1.5E1,3.5E1,3E0,5.7E1,3E0,5E0,2E0,2.9E1,2E0,8E0,1E1,1.3E1,6E1,1.2E1,5E0,2.1E1,1E0,3.1E1,2E0,3.3E1,2.6E1,1.3E1,2E0,6E0,2.9E1,2E0,1E0,4.3E1,1.4E1,1E0,4E0,1E0,1E0,1.2E1,1.7E1,1E0,1E0,6E0,2E0,7E0,3E0],"tree_param":{"num_deleted":"0","num_feature":"13","num_nodes":"61","size_leaf_vector":"1"}},{"base_weights":[6.4363766E4,-2.1417005E5,7.194579E5,-3.373527E5,2.9926147E5,3.615637E5,1.2143398E6,-1.4088433E5,-6.606351E5,1.907355E5,1.0995046E6,1.3552002E5,9.2548875E5,3.8569372E5,1.427874E6,-1.9614552E5,4.998913E5,-7.469643E5,2.699855E4,-5.950526E5,2.776705E5,1.4921038E6,-2.1587287E4,7.4093296E3,5.262059E4,5.048611E5,1.7527051E6,-6.0181562E4,5.9051043E4,1.1230035E6,2.0463858E6,-1.5869538E4,4.4897324E3,-4.6060024E3,4.256718E4,-3.8490863E4,1.7629459E3,-1.1403111E4,2.3330264E4,-4.286998E4,-6.7177417E3,7.009415E3,3.3243715E4,8.646166E4,1.3589663E4,-7.5992847E3,3.220831E4,1.9714693E4,4.8555875E4,1.0424364E5,3.6279E4,-1.154689E4,8.415456E3,4.8528105E4,1.2716206E5,1.2118037E5,3.901732E4],"categories":[],"categories_nodes":[],"categories_segments":[],"categories_sizes":[],"default_left":[0,0,0,0,0,0,0,0,0,0,0,0,0,0,0,0,0,0,0,0,0,0,0,0,0,0,0,0,0,0,0,0,0,0,0,0,0,0,0,0,0,0,0,0,0,0,0,0,0,0,0,0,0,0,0,0,0],"id":17,"left_children":[1,3,5,7,9,11,13,15,17,19,21,23,25,27,29,31,33,35,37,39,41,43,-1,45,-1,47,49,51,-1,53,55,-1,-1,-1,-1,-1,-1,-1,-1,-1,-1,-1,-1,-1,-1,-1,-1,-1,-1,-1,-1,-1,-1,-1,-1,-1,-1],"loss_changes":[6.9126177E13,1.6924353E13,1.9574976E13,1.3562601E13,4.3063375E12,8.4151815E12,7.7656616E12,4.8784034E12,4.8285583E12,3.375916E12,4.251216E12,5.7479203E12,5.726178E12,3.9718596E12,4.6788384E12,4.3621097E12,2.367127E12,1.3142222E12,1.2276793E12,4.8911732E11,2.1958385E12,9.7686284E11,0E0,4.5637226E12,0E0,3.3883187E11,5.3432497E11,3.5099863E11,0E0,3.3772116E12,3.3620954E12,0E0,0E0,0E0,0E0,0E0,0E0,0E0,0E0,0E0,0E0,0E0,0E0,0E0,0E0,0E0,0E0,0E0,0E0,0E0,0E0,0E0,0E0,0E0,0E0,0E0,0E0],"parents":[2147483647,0,0,1,1,2,2,3,3,4,4,5,5,6,6,7,7,8,8,9,9,10,10,11,11,12,12,13,13,14,14,15,15,16,16,17,17,18,18,19,19,20,20,21,21,23,23,25,25,26,26,27,27,29,29,30,30],"right_children":[2,4,6,8,10,12,14,16,18,20,22,24,26,28,30,32,34,36,38,40,42,44,-1,46,-1,48,50,52,-1,54,56,-1,-1,-1,-1,-1,-1,-1,-1,-1,-1,-1,-1,-1,-1,-1,-1,-1,-1,-1,-1,-1,-1,-1,-1,-1,-1],"split_conditions":[1E0,1.4218117E0,1.4218117E0,1E0,2.7595603E0,1E0,2.2441013E-1,1E0,1E0,4.727831E-2,1E0,2.5320237E0,1.4034194E0,1E0,1E0,1E0,4.727831E-2,1E0,1.3782169E0,1E0,1E0,1.3782169E0,-2.1587287E4,1E0,5.262059E4,2.5320237E0,2.7595603E0,1E0,5.9051043E4,3.4138103E0,1.3782169E0,-1.5869538E4,4.4897324E3,-4.6060024E3,4.256718E4,-3.8490863E4,1.7629459E3,-1.1403111E4,2.3330264E4,-4.286998E4,-6.7177417E3,7.009415E3,3.3243715E4,8.646166E4,1.3589663E4,-7.5992847E3,3.220831E4,1.9714693E4,4.8555875E4,1.0424364E5,3.6279E4,-1.154689E4,8.415456E3,4.8528105E4,1.2716206E5,1.2118037E5,3.901732E4],"split_indices":[8,2,2,12,1,5,3,7,10,1,11,3,1,5,10,10,1,5,3,11,10,3,0,10,0,3,1,11,0,2,3,0,0,0,0,0,0,0,0,0,0,0,0,0,0,0,0,0,0,0,0,0,0,0,0,0,0],"split_type":[0,0,0,0,0,0,0,0,0,0,0,0,0,0,0,0,0,0,0,0,0,0,0,0,0,0,0,0,0,0,0,0,0,0,0,0,0,0,0,0,0,0,0,0,0,0,0,0,0,0,0,0,0,0,0,0,0],"sum_hessian":[3.77E2,2.65E2,1.12E2,2.14E2,5.1E1,6.6E1,4.6E1,1.34E2,8E1,4.6E1,5E0,4.8E1,1.8E1,1E1,3.6E1,1.24E2,1E1,7.1E1,9E0,4E0,4.2E1,4E0,1E0,4.3E1,5E0,1.3E1,5E0,7E0,3E0,2.6E1,1E1,8.7E1,3.7E1,4E0,6E0,6.9E1,2E0,6E0,3E0,2E0,2E0,3.2E1,1E1,3E0,1E0,3.5E1,8E0,1.2E1,1E0,3E0,2E0,4E0,3E0,2.5E1,1E0,7E0,3E0],"tree_param":{"num_deleted":"0","num_feature":"13","num_nodes":"57","size_leaf_vector":"1"}},{"base_weights":[-1.8350557E4,-3.6167238E5,6.869208E5,-5.6815775E5,-1.03993125E5,3.3492872E5,1.208468E6,-3.9972447E5,-8.377317E5,6.0457355E4,-4.223357E5,1.8004155E5,6.8237675E5,1.0353875E6,1.5132936E5,-4.9672478E5,-2.083715E4,-8.486178E5,-5.9749126E3,-3.4419353E5,2.1987998E5,-4.973816E5,2.174712E5,5.7588715E4,9.0755994E5,4.384996E5,1.5214099E6,1.1068201E6,-4.49345E4,-3.1525162E4,-1.33698E4,-9.501737E3,5.006471E4,-4.365052E4,-2.5195482E4,-2.1725217E4,3.391315E3,7.4896245E3,3.196014E4,-3.003315E4,1.5530929E3,2.8441082E4,-2.9698264E4,-1.0177E4,2.0772637E4,5.5242707E4,-1.1837487E4,4.7341977E4,1.809556E4,1.9508318E4,1.07275836E5,4.4260414E4,8.006402E4,-9.955963E3,3.641675E3],"categories":[],"categories_nodes":[],"categories_segments":[],"categories_sizes":[],"default_left":[0,0,0,0,0,0,0,0,0,0,0,0,0,0,0,0,0,0,0,0,0,0,0,0,0,0,0,0,0,0,0,0,0,0,0,0,0,0,0,0,0,0,0,0,0,0,0,0,0,0,0,0,0,0,0],"id":18,"left_children":[1,3,5,7,9,11,13,15,17,19,21,23,25,27,-1,29,31,33,-1,35,37,39,41,43,45,47,49,51,53,-1,-1,-1,-1,-1,-1,-1,-1,-1,-1,-1,-1,-1,-1,-1,-1,-1,-1,-1,-1,-1,-1,-1,-1,-1,-1],"loss_changes":[9.613392E13,1.4147184E13,2.3460718E13,6.3851106E12,6.3077236E12,4.1285488E12,1.3229724E13,3.4076015E12,3.364419E11,5.236522E12,2.0767771E12,4.9365894E12,4.2437664E12,3.8310773E12,0E0,2.1016714E12,3.649124E12,2.254019E10,0E0,8.852975E11,1.6088307E12,2.0380564E12,1.763353E12,4.6635407E12,2.0676991E12,4.359869E11,2.692977E12,3.623128E12,8.7134675E10,0E0,0E0,0E0,0E0,0E0,0E0,0E0,0E0,0E0,0E0,0E0,0E0,0E0,0E0,0E0,0E0,0E0,0E0,0E0,0E0,0E0,0E0,0E0,0E0,0E0,0E0],"parents":[2147483647,0,0,1,1,2,2,3,3,4,4,5,5,6,6,7,7,8,8,9,9,10,10,11,11,12,12,13,13,15,15,16,16,17,17,19,19,20,20,21,21,22,22,23,23,24,24,25,25,26,26,27,27,28,28],"right_children":[2,4,6,8,10,12,14,16,18,20,22,24,26,28,-1,30,32,34,-1,36,38,40,42,44,46,48,50,52,54,-1,-1,-1,-1,-1,-1,-1,-1,-1,-1,-1,-1,-1,-1,-1,-1,-1,-1,-1,-1,-1,-1,-1,-1,-1,-1],"split_conditions":[3.917898E-1,-5.1589686E-1,1.4218117E0,1E0,1E0,1E0,3.4138103E0,1.4218117E0,1.3782169E0,4.727831E-2,1.3782169E0,1.3782169E0,1.4034194E0,1.8520215E0,1.5132936E5,-7.5665516E-1,1E0,1E0,-5.9749126E3,1E0,1E0,1E0,-1.524532E-1,1E0,1.4034194E0,4.0101427E-1,5.024833E-1,1.0144407E0,2.1444368E0,-3.1525162E4,-1.33698E4,-9.501737E3,5.006471E4,-4.365052E4,-2.5195482E4,-2.1725217E4,3.391315E3,7.4896245E3,3.196014E4,-3.003315E4,1.5530929E3,2.8441082E4,-2.9698264E4,-1.0177E4,2.0772637E4,5.5242707E4,-1.1837487E4,4.7341977E4,1.809556E4,1.9508318E4,1.07275836E5,4.4260414E4,8.006402E4,-9.955963E3,3.641675E3],"split_indices":[0,0,2,12,12,5,2,2,3,1,3,3,1,0,0,0,7,10,0,5,10,10,0,10,1,0,0,0,0,0,0,0,0,0,0,0,0,0,0,0,0,0,0,0,0,0,0,0,0,0,0,0,0,0,0],"split_type":[0,0,0,0,0,0,0,0,0,0,0,0,0,0,0,0,0,0,0,0,0,0,0,0,0,0,0,0,0,0,0,0,0,0,0,0,0,0,0,0,0,0,0,0,0,0,0,0,0,0,0,0,0,0,0],"sum_hessian":[3.95E2,2.66E2,1.29E2,1.47E2,1.19E2,7.8E1,5.1E1,9.2E1,5.5E1,7.9E1,4E1,5.5E1,2.3E1,4.8E1,3E0,7.3E1,1.9E1,5.4E1,1E0,2.2E1,5.7E1,3.6E1,4E0,4.8E1,7E0,1.9E1,4E0,4.5E1,3E0,4.5E1,2.8E1,1.7E1,2E0,4.9E1,5E0,1.8E1,4E0,5E1,7E0,3E1,6E0,3E0,1E0,2.8E1,2E1,6E0,1E0,1E0,1.8E1,2E0,2E0,3.3E1,1.2E1,1E0,2E0],"tree_param":{"num_deleted":"0","num_feature":"13","num_nodes":"55","size_leaf_vector":"1"}},{"base_weights":[2.187362E4,-3.3049928E5,6.9996075E5,-5.2926794E5,-6.607839E4,3.4143816E5,9.899596E5,-7.316463E5,-3.5316016E5,-2.214297E5,2.3818673E5,1.5804184E5,6.375694E5,7.7425344E5,1.3980992E6,-9.988297E5,-6.050773E5,-2.3126139E5,-6.6401775E5,9.239306E4,-3.739125E5,1.1629812E5,5.6784506E5,-2.6468457E4,6.301106E5,-4.301175E4,8.2900925E5,-2.8745966E5,8.244802E5,1.6606762E6,6.81714E4,-5.2874402E4,-2.4991217E4,-3.613595E4,-1.740207E4,-1.9245588E4,5.6235776E3,-3.4723242E4,-6.157375E2,-1.2864056E4,5.141548E4,-2.0206072E4,2.765815E4,-1.5176312E3,1.989849E4,3.607634E4,1.34928955E4,1.02592295E4,-2.4356387E4,7.532076E4,1.3399843E4,-7.045025E3,5.092192E3,5.6432152E4,2.0198533E4,-1.7797963E4,-3.7615125E3,3.76312E4,8.2572445E4,6.4053957E4,1.4293978E5,-2.8516014E4,1.8518719E4],"categories":[],"categories_nodes":[],"categories_segments":[],"categories_sizes":[],"default_left":[0,0,0,0,0,0,0,0,0,0,0,0,0,0,0,0,0,0,0,0,0,0,0,0,0,0,0,0,0,0,0,0,0,0,0,0,0,0,0,0,0,0,0,0,0,0,0,0,0,0,0,0,0,0,0,0,0,0,0,0,0,0,0],"id":19,"left_children":[1,3,5,7,9,11,13,15,17,19,21,23,25,27,29,31,33,35,37,39,41,43,45,47,49,51,53,55,57,59,61,-1,-1,-1,-1,-1,-1,-1,-1,-1,-1,-1,-1,-1,-1,-1,-1,-1,-1,-1,-1,-1,-1,-1,-1,-1,-1,-1,-1,-1,-1,-1,-1],"loss_changes":[9.293988E13,1.3420026E13,1.3490161E13,4.9451096E12,5.2994874E12,3.2121086E12,5.3443067E12,1.6613764E12,2.8778902E12,3.5756368E12,1.4608614E12,3.4136384E12,3.032336E12,2.9033308E12,8.2677953E12,5.6860082E10,1.1998939E12,3.1593582E12,4.2798154E11,8.446211E12,1.6238442E12,1.2099929E12,2.6324238E11,3.194632E12,3.0868274E12,9.9428246E10,1.8364676E12,1.6833987E10,1.6093754E12,5.433708E12,1.1760024E12,0E0,0E0,0E0,0E0,0E0,0E0,0E0,0E0,0E0,0E0,0E0,0E0,0E0,0E0,0E0,0E0,0E0,0E0,0E0,0E0,0E0,0E0,0E0,0E0,0E0,0E0,0E0,0E0,0E0,0E0,0E0,0E0],"parents":[2147483647,0,0,1,1,2,2,3,3,4,4,5,5,6,6,7,7,8,8,9,9,10,10,11,11,12,12,13,13,14,14,15,15,16,16,17,17,18,18,19,19,20,20,21,21,22,22,23,23,24,24,25,25,26,26,27,27,28,28,29,29,30,30],"right_children":[2,4,6,8,10,12,14,16,18,20,22,24,26,28,30,32,34,36,38,40,42,44,46,48,50,52,54,56,58,60,62,-1,-1,-1,-1,-1,-1,-1,-1,-1,-1,-1,-1,-1,-1,-1,-1,-1,-1,-1,-1,-1,-1,-1,-1,-1,-1,-1,-1,-1,-1,-1,-1],"split_conditions":[3.917898E-1,-5.1589686E-1,2.2441013E-1,2.2441013E-1,1E0,1E0,1.5176924E0,1E0,1E0,-3.7384018E-1,1.3782169E0,1.4858105E0,5.762789E-1,1E0,1.8520215E0,1E0,4.727831E-2,3.5597563E-1,1E0,-4.568603E-1,2.5320237E0,7.815824E-2,8.974805E-3,9.4525725E-1,1.8520215E0,1.5176924E0,1.1297464E0,6.2240124E-1,2.9008422E0,2.6794093E0,2.0614166E0,-5.2874402E4,-2.4991217E4,-3.613595E4,-1.740207E4,-1.9245588E4,5.6235776E3,-3.4723242E4,-6.157375E2,-1.2864056E4,5.141548E4,-2.0206072E4,2.765815E4,-1.5176312E3,1.989849E4,3.607634E4,1.34928955E4,1.02592295E4,-2.4356387E4,7.532076E4,1.3399843E4,-7.045025E3,5.092192E3,5.6432152E4,2.0198533E4,-1.7797963E4,-3.7615125E3,3.76312E4,8.2572445E4,6.4053957E4,1.4293978E5,-2.8516014E4,1.8518719E4],"split_indices":[0,0,3,3,8,8,9,4,12,0,3,0,0,4,0,8,1,9,5,0,3,0,0,0,0,9,0,0,0,9,0,0,0,0,0,0,0,0,0,0,0,0,0,0,0,0,0,0,0,0,0,0,0,0,0,0,0,0,0,0,0,0,0],"split_type":[0,0,0,0,0,0,0,0,0,0,0,0,0,0,0,0,0,0,0,0,0,0,0,0,0,0,0,0,0,0,0,0,0,0,0,0,0,0,0,0,0,0,0,0,0,0,0,0,0,0,0,0,0,0,0,0,0,0,0,0,0,0,0],"sum_hessian":[3.87E2,2.55E2,1.32E2,1.45E2,1.1E2,6E1,7.2E1,6.6E1,7.9E1,7.3E1,3.7E1,3.8E1,2.2E1,4.9E1,2.3E1,1.9E1,4.7E1,5.8E1,2.1E1,2.4E1,4.9E1,2.8E1,9E0,2.8E1,1E1,5E0,1.7E1,2E0,4.7E1,1.9E1,4E0,1.6E1,3E0,3.1E1,1.6E1,4E1,1.8E1,2E1,1E0,1.8E1,6E0,4.8E1,1E0,1.9E1,9E0,5E0,4E0,1.9E1,9E0,2E0,8E0,3E0,2E0,9E0,8E0,1E0,1E0,4.5E1,2E0,1.6E1,3E0,1E0,3E0],"tree_param":{"num_deleted":"0","num_feature":"13","num_nodes":"63","size_leaf_vector":"1"}},{"base_weights":[1.2602273E4,-3.1854662E5,6.902047E5,-5.246085E5,-1.02108984E5,4.771194E5,1.3212095E6,-5.821573E5,-1.18199125E5,-2.7550694E5,2.5512655E5,3.365462E5,9.4743844E5,1.086958E6,1.6116605E5,-6.211024E5,-4.1477945E4,-3.137557E5,9.641688E5,-4.138348E5,3.7283322E5,1.5316477E5,7.817811E4,3.0934396E4,6.661012E5,5.821617E5,1.1145851E6,1.2621588E6,6.6959694E5,-3.279196E4,-8.141643E2,-2.5023309E4,8.057836E3,-2.0793518E4,-2.96465E2,9.7389664E4,-2.5077E4,-2.4651967E4,-6.19618E3,-1.3610209E3,2.785752E4,1.3314692E3,1.976476E4,-1.6429777E4,1.49646455E4,4.002276E4,1.3788424E4,3.5522113E4,1.2210019E4,6.065087E4,1.7466383E4,3.803028E4,8.953281E4,3.9456414E4,-1.31429E4],"categories":[],"categories_nodes":[],"categories_segments":[],"categories_sizes":[],"default_left":[0,0,0,0,0,0,0,0,0,0,0,0,0,0,0,0,0,0,0,0,0,0,0,0,0,0,0,0,0,0,0,0,0,0,0,0,0,0,0,0,0,0,0,0,0,0,0,0,0,0,0,0,0,0,0],"id":20,"left_children":[1,3,5,7,9,11,13,15,17,19,21,23,25,27,-1,29,31,33,35,37,39,41,-1,43,45,47,49,51,53,-1,-1,-1,-1,-1,-1,-1,-1,-1,-1,-1,-1,-1,-1,-1,-1,-1,-1,-1,-1,-1,-1,-1,-1,-1,-1],"loss_changes":[8.817968E13,1.1720708E13,1.6714687E13,3.0886226E12,8.122997E12,6.160344E12,1.0754695E13,2.45894E12,4.112468E12,8.046441E12,5.497167E12,7.734519E12,6.943356E11,1.3485233E12,0E0,2.300366E12,9.1771575E11,5.0047156E11,5.302017E12,1.6151478E12,1.1949538E12,1.2456341E12,0E0,4.0541464E12,1.7196416E12,2.1669452E11,6.308223E11,3.9394078E12,1.4334616E12,0E0,0E0,0E0,0E0,0E0,0E0,0E0,0E0,0E0,0E0,0E0,0E0,0E0,0E0,0E0,0E0,0E0,0E0,0E0,0E0,0E0,0E0,0E0,0E0,0E0,0E0],"parents":[2147483647,0,0,1,1,2,2,3,3,4,4,5,5,6,6,7,7,8,8,9,9,10,10,11,11,12,12,13,13,15,15,16,16,17,17,18,18,19,19,20,20,21,21,23,23,24,24,25,25,26,26,27,27,28,28],"right_children":[2,4,6,8,10,12,14,16,18,20,22,24,26,28,-1,30,32,34,36,38,40,42,-1,44,46,48,50,52,54,-1,-1,-1,-1,-1,-1,-1,-1,-1,-1,-1,-1,-1,-1,-1,-1,-1,-1,-1,-1,-1,-1,-1,-1,-1,-1],"split_conditions":[3.917898E-1,-5.860027E-1,1.4034194E0,1.5176924E0,1E0,1.3782169E0,2.6794093E0,1E0,1E0,1.3782169E0,1E0,1E0,3.5597563E-1,2.5320237E0,1.6116605E5,1.3782169E0,1E0,-6.990023E-1,-7.5665516E-1,1.1505607E-1,1E0,1E0,7.817811E4,3.5597563E-1,1.2911744E0,5.993401E-1,1.0836241E0,1E0,1E0,-3.279196E4,-8.141643E2,-2.5023309E4,8.057836E3,-2.0793518E4,-2.96465E2,9.7389664E4,-2.5077E4,-2.4651967E4,-6.19618E3,-1.3610209E3,2.785752E4,1.3314692E3,1.976476E4,-1.6429777E4,1.49646455E4,4.002276E4,1.3788424E4,3.5522113E4,1.2210019E4,6.065087E4,1.7466383E4,3.803028E4,8.953281E4,3.9456414E4,-1.31429E4],"split_indices":[0,0,1,9,6,3,9,5,7,3,7,10,9,3,0,3,6,0,0,0,8,8,0,9,0,0,0,8,6,0,0,0,0,0,0,0,0,0,0,0,0,0,0,0,0,0,0,0,0,0,0,0,0,0,0],"split_type":[0,0,0,0,0,0,0,0,0,0,0,0,0,0,0,0,0,0,0,0,0,0,0,0,0,0,0,0,0,0,0,0,0,0,0,0,0,0,0,0,0,0,0,0,0,0,0,0,0,0,0,0,0,0,0],"sum_hessian":[3.91E2,2.63E2,1.28E2,1.34E2,1.29E2,9.7E1,3.1E1,1.17E2,1.7E1,8.7E1,4.2E1,7.6E1,2.1E1,2.9E1,2E0,1.09E2,8E0,1.5E1,2E0,7.2E1,1.5E1,4E1,2E0,4E1,3.6E1,8E0,1.3E1,1.9E1,1E1,1.03E2,6E0,2E0,6E0,1.1E1,4E0,1E0,1E0,5.6E1,1.6E1,5E0,1E1,2.7E1,1.3E1,1.7E1,2.3E1,2.6E1,1E1,5E0,3E0,1.1E1,2E0,1.1E1,8E0,9E0,1E0],"tree_param":{"num_deleted":"0","num_feature":"13","num_nodes":"55","size_leaf_vector":"1"}},{"base_weights":[3.232583E3,-2.7202E5,5.730662E5,-3.699121E5,1.8990317E5,2.207301E5,1.036699E6,-6.169355E5,-2.4723914E5,-2.4589363E4,5.698659E5,-8.525509E4,3.693081E5,1.2283058E6,6.0900694E5,-4.1488336E4,-4.3577616E5,-1.0357515E5,-4.448444E5,-2.4846205E4,6.379075E4,-1.2941143E4,8.8893706E5,-1.7144512E5,3.0197676E4,2.2865112E5,7.520509E5,8.185107E5,1.7747711E6,1.1359413E5,1.146844E6,-2.3493623E4,-1.4585E2,-1.4898394E4,1.0369169E3,-2.4877791E4,6.5027334E3,2.37985E4,-6.7404727E3,-1.1067995E4,1.6936857E4,8.0613438E3,5.708375E4,-9.644338E2,-2.5823787E4,-5.19179E3,3.2273912E4,4.259523E4,-1.1154851E4,-5.9058003E3,4.332268E4,1.15660516E5,5.7939414E4,1.992821E4,-1.5404141E4,7.6059875E4,2.7156084E4],"categories":[],"categories_nodes":[],"categories_segments":[],"categories_sizes":[],"default_left":[0,0,0,0,0,0,0,0,0,0,0,0,0,0,0,0,0,0,0,0,0,0,0,0,0,0,0,0,0,0,0,0,0,0,0,0,0,0,0,0,0,0,0,0,0,0,0,0,0,0,0,0,0,0,0,0,0],"id":21,"left_children":[1,3,5,7,9,11,13,15,17,19,21,23,25,27,29,-1,31,33,35,-1,37,39,41,43,-1,45,47,49,51,53,55,-1,-1,-1,-1,-1,-1,-1,-1,-1,-1,-1,-1,-1,-1,-1,-1,-1,-1,-1,-1,-1,-1,-1,-1,-1,-1],"loss_changes":[6.164037E13,1.2053184E13,2.0680557E13,6.4838466E12,3.8444728E12,3.395723E12,3.7591324E12,2.4144637E12,4.1554626E12,1.3257942E12,3.1727723E12,1.5886177E12,2.5198152E12,6.8330665E12,4.932302E12,0E0,6.037444E11,2.1085896E12,1.9435398E12,0E0,2.274355E12,5.880573E11,1.8390508E12,1.1975066E12,0E0,5.333427E12,1.4558948E12,1.1351475E12,2.294515E12,1.4446093E12,1.2078536E12,0E0,0E0,0E0,0E0,0E0,0E0,0E0,0E0,0E0,0E0,0E0,0E0,0E0,0E0,0E0,0E0,0E0,0E0,0E0,0E0,0E0,0E0,0E0,0E0,0E0,0E0],"parents":[2147483647,0,0,1,1,2,2,3,3,4,4,5,5,6,6,7,7,8,8,9,9,10,10,11,11,12,12,13,13,14,14,16,16,17,17,18,18,20,20,21,21,22,22,23,23,25,25,26,26,27,27,28,28,29,29,30,30],"right_children":[2,4,6,8,10,12,14,16,18,20,22,24,26,28,30,-1,32,34,36,-1,38,40,42,44,-1,46,48,50,52,54,56,-1,-1,-1,-1,-1,-1,-1,-1,-1,-1,-1,-1,-1,-1,-1,-1,-1,-1,-1,-1,-1,-1,-1,-1,-1,-1],"split_conditions":[3.8487145E-1,1.4218117E0,1.4218117E0,-7.5665516E-1,-2.9082006E-1,3.5597563E-1,1E0,2.2441013E-1,1E0,-1.0901194E0,1E0,1.3782169E0,1E0,1.0753222E0,1E0,-4.1488336E4,1E0,4.727831E-2,1E0,-2.4846205E4,-7.5665516E-1,7.815824E-2,2.2441013E-1,1E0,3.0197676E4,1.4858105E0,1.383419E0,1E0,1.3050112E0,8.530127E-1,1.3782169E0,-2.3493623E4,-1.4585E2,-1.4898394E4,1.0369169E3,-2.4877791E4,6.5027334E3,2.37985E4,-6.7404727E3,-1.1067995E4,1.6936857E4,8.0613438E3,5.708375E4,-9.644338E2,-2.5823787E4,-5.19179E3,3.2273912E4,4.259523E4,-1.1154851E4,-5.9058003E3,4.332268E4,1.15660516E5,5.7939414E4,1.992821E4,-1.5404141E4,7.6059875E4,2.7156084E4],"split_indices":[0,2,2,0,0,9,5,3,12,0,8,3,5,0,8,0,5,1,5,0,0,0,3,12,0,0,0,4,0,0,3,0,0,0,0,0,0,0,0,0,0,0,0,0,0,0,0,0,0,0,0,0,0,0,0,0,0],"split_type":[0,0,0,0,0,0,0,0,0,0,0,0,0,0,0,0,0,0,0,0,0,0,0,0,0,0,0,0,0,0,0,0,0,0,0,0,0,0,0,0,0,0,0,0,0,0,0,0,0,0,0,0,0,0,0,0,0],"sum_hessian":[3.91E2,2.64E2,1.27E2,2.18E2,4.6E1,7.3E1,5.4E1,7.1E1,1.47E2,3E1,1.6E1,2.4E1,4.9E1,3.6E1,1.8E1,3.1E1,4E1,8.6E1,6.1E1,4E0,2.6E1,6E0,1E1,2.2E1,2E0,3.7E1,1.2E1,2.2E1,1.4E1,1E1,8E0,3.7E1,3E0,3.3E1,5.3E1,5.6E1,5E0,8E0,1.8E1,4E0,2E0,3E0,7E0,1.6E1,6E0,2.1E1,1.6E1,1.1E1,1E0,1E0,2.1E1,6E0,8E0,6E0,4E0,4E0,4E0],"tree_param":{"num_deleted":"0","num_feature":"13","num_nodes":"57","size_leaf_vector":"1"}},{"base_weights":[1.6309568E3,-2.5858212E5,5.4868025E5,-4.1415738E5,9.607796E3,1.5438678E5,1.0620392E6,-3.049835E5,-5.9300575E5,-1.3323864E5,4.6155453E5,-8.860613E4,4.0659075E5,9.1370194E5,1.3624572E5,-3.5266384E5,1.9278238E5,-6.946491E5,-3.988916E5,-2.5385797E5,1.5574753E5,6.035231E4,3.3891684E5,4.1975926E4,-1.3638027E5,-1.1194129E5,6.392225E5,5.864133E5,1.116497E6,-2.1570088E4,-7.9905625E3,1.6094531E4,-3.52E1,-3.658017E4,-1.816537E4,-1.2761007E4,-2.5041373E4,-2.0602527E4,4.270942E3,7.108983E2,8.173495E4,-1.8504514E4,3.1396256E4,-1.6562117E4,5.6177046E3,-2.1662904E4,8.973236E3,1.3179885E4,3.491089E4,4.656112E4,3.9760051E3,4.1227496E4,7.861755E4],"categories":[],"categories_nodes":[],"categories_segments":[],"categories_sizes":[],"default_left":[0,0,0,0,0,0,0,0,0,0,0,0,0,0,0,0,0,0,0,0,0,0,0,0,0,0,0,0,0,0,0,0,0,0,0,0,0,0,0,0,0,0,0,0,0,0,0,0,0,0,0,0,0],"id":22,"left_children":[1,3,5,7,9,11,13,15,17,19,21,23,25,27,-1,29,31,33,35,37,39,-1,41,-1,43,45,47,49,51,-1,-1,-1,-1,-1,-1,-1,-1,-1,-1,-1,-1,-1,-1,-1,-1,-1,-1,-1,-1,-1,-1,-1,-1],"loss_changes":[5.6085185E13,1.1144211E13,2.5542628E13,3.1189683E12,6.452836E12,4.5097424E12,1.1076888E13,2.6074887E12,9.6592514E11,2.6886938E12,1.785121E12,1.7994272E12,4.4141275E12,2.7966445E12,0E0,1.4191679E12,2.500335E11,2.2398422E11,2.236652E11,2.9334344E12,4.7910114E12,0E0,4.7403856E12,0E0,1.8305654E12,1.2013582E12,3.699544E11,3.7711396E12,2.8291587E12,0E0,0E0,0E0,0E0,0E0,0E0,0E0,0E0,0E0,0E0,0E0,0E0,0E0,0E0,0E0,0E0,0E0,0E0,0E0,0E0,0E0,0E0,0E0,0E0],"parents":[2147483647,0,0,1,1,2,2,3,3,4,4,5,5,6,6,7,7,8,8,9,9,10,10,11,11,12,12,13,13,15,15,16,16,17,17,18,18,19,19,20,20,22,22,24,24,25,25,26,26,27,27,28,28],"right_children":[2,4,6,8,10,12,14,16,18,20,22,24,26,28,-1,30,32,34,36,38,40,-1,42,-1,44,46,48,50,52,-1,-1,-1,-1,-1,-1,-1,-1,-1,-1,-1,-1,-1,-1,-1,-1,-1,-1,-1,-1,-1,-1,-1,-1],"split_conditions":[3.917898E-1,-4.1073802E-1,1.4218117E0,1E0,1.4218117E0,1E0,3.4138103E0,1E0,-6.966962E-1,1E0,-3.8306466E-1,4.0101427E-1,1E0,1E0,1.3624572E5,-6.9208395E-1,-7.289818E-1,1E0,-5.6294155E-1,1E0,1E0,6.035231E4,-2.9082006E-1,4.1975926E4,1E0,5.762789E-1,5.762789E-1,1E0,1E0,-2.1570088E4,-7.9905625E3,1.6094531E4,-3.52E1,-3.658017E4,-1.816537E4,-1.2761007E4,-2.5041373E4,-2.0602527E4,4.270942E3,7.108983E2,8.173495E4,-1.8504514E4,3.1396256E4,-1.6562117E4,5.6177046E3,-2.1662904E4,8.973236E3,1.3179885E4,3.491089E4,4.656112E4,3.9760051E3,4.1227496E4,7.861755E4],"split_indices":[0,0,2,12,2,6,2,5,0,6,0,0,10,8,0,0,0,10,0,8,7,0,0,0,11,0,0,5,10,0,0,0,0,0,0,0,0,0,0,0,0,0,0,0,0,0,0,0,0,0,0,0,0],"split_type":[0,0,0,0,0,0,0,0,0,0,0,0,0,0,0,0,0,0,0,0,0,0,0,0,0,0,0,0,0,0,0,0,0,0,0,0,0,0,0,0,0,0,0,0,0,0,0,0,0,0,0,0,0],"sum_hessian":[3.92E2,2.66E2,1.26E2,1.68E2,9.8E1,7.2E1,5.4E1,1.06E2,6.2E1,7.5E1,2.3E1,3.7E1,3.5E1,5.1E1,3E0,9.7E1,9E0,3.9E1,2.3E1,5.3E1,2.2E1,2E0,2.1E1,1E0,3.6E1,1.1E1,2.4E1,2.1E1,3E1,6.8E1,2.9E1,5E0,4E0,3.4E1,5E0,1.1E1,1.2E1,3.6E1,1.7E1,2.1E1,1E0,6E0,1.5E1,2E1,1.6E1,5E0,6E0,4E0,2E1,1.2E1,9E0,2E1,1E1],"tree_param":{"num_deleted":"0","num_feature":"13","num_nodes":"53","size_leaf_vector":"1"}},{"base_weights":[2.599222E4,-1.7581322E5,6.479549E5,-3.0689316E5,2.145276E5,2.690518E5,1.0539571E6,-4.181646E5,9.449706E4,9.0883336E4,5.0826678E5,1.9396795E5,1.1027952E6,-2.306956E5,1.1817978E6,-2.8611625E5,-5.969422E5,4.917335E4,3.8653477E4,9.963594E2,6.942679E5,2.0406144E5,1.2854709E6,1.1103539E5,6.638536E5,6.646543E4,1.0581388E4,-1.2761775E5,-1.6075175E4,1.0544894E6,1.242655E5,-3.0259332E4,-1.0045694E4,-3.082777E4,-5.2237627E3,1.0359495E3,3.395185E4,4.829697E3,-1.3190602E4,4.480191E4,-1.2908851E4,5.7249487E3,4.0926527E4,7.6935336E4,4.822875E2,2.0227822E3,3.1261719E4,3.1147302E3,7.2258375E4,-1.1876691E4,5.0532627E3,3.804645E4,7.465141E4],"categories":[],"categories_nodes":[],"categories_segments":[],"categories_sizes":[],"default_left":[0,0,0,0,0,0,0,0,0,0,0,0,0,0,0,0,0,0,0,0,0,0,0,0,0,0,0,0,0,0,0,0,0,0,0,0,0,0,0,0,0,0,0,0,0,0,0,0,0,0,0,0,0],"id":23,"left_children":[1,3,5,7,9,11,13,15,17,19,21,23,25,27,29,31,33,35,-1,37,39,41,43,45,47,-1,-1,49,-1,51,-1,-1,-1,-1,-1,-1,-1,-1,-1,-1,-1,-1,-1,-1,-1,-1,-1,-1,-1,-1,-1,-1,-1],"loss_changes":[4.9190453E13,1.5210929E13,1.4484639E13,9.954759E12,2.6777446E12,2.9787279E12,7.827255E12,3.9368723E12,1.4690012E12,2.9280746E12,4.939137E12,1.796792E12,5.2612668E11,5.77187E9,4.3490864E12,2.651336E12,6.4068203E11,8.282824E11,0E0,1.2406046E12,1.576562E12,8.418462E11,1.9236651E12,1.4989714E12,3.2000188E12,0E0,0E0,1.24550185E11,0E0,4.013412E12,0E0,0E0,0E0,0E0,0E0,0E0,0E0,0E0,0E0,0E0,0E0,0E0,0E0,0E0,0E0,0E0,0E0,0E0,0E0,0E0,0E0,0E0,0E0],"parents":[2147483647,0,0,1,1,2,2,3,3,4,4,5,5,6,6,7,7,8,8,9,9,10,10,11,11,12,12,13,13,14,14,15,15,16,16,17,17,19,19,20,20,21,21,22,22,23,23,24,24,27,27,29,29],"right_children":[2,4,6,8,10,12,14,16,18,20,22,24,26,28,30,32,34,36,-1,38,40,42,44,46,48,-1,-1,50,-1,52,-1,-1,-1,-1,-1,-1,-1,-1,-1,-1,-1,-1,-1,-1,-1,-1,-1,-1,-1,-1,-1,-1,-1],"split_conditions":[1.4218117E0,1E0,1E0,1E0,1E0,2.7595603E0,1E0,1E0,1.4034194E0,2.5320237E0,1.4034194E0,1E0,1.3782169E0,2.7595603E0,3.4138103E0,1E0,1E0,1E0,3.8653477E4,1E0,1.4034194E0,2.5320237E0,1.3782169E0,1.3782169E0,1.4034194E0,6.646543E4,1.0581388E4,1.4034194E0,-1.6075175E4,1E0,1.242655E5,-3.0259332E4,-1.0045694E4,-3.082777E4,-5.2237627E3,1.0359495E3,3.395185E4,4.829697E3,-1.3190602E4,4.480191E4,-1.2908851E4,5.7249487E3,4.0926527E4,7.6935336E4,4.822875E2,2.0227822E3,3.1261719E4,3.1147302E3,7.2258375E4,-1.1876691E4,5.0532627E3,3.804645E4,7.465141E4],"split_indices":[2,8,8,10,5,1,4,12,1,3,1,7,3,1,2,4,5,7,0,12,1,3,3,3,1,0,0,1,0,10,0,0,0,0,0,0,0,0,0,0,0,0,0,0,0,0,0,0,0,0,0,0,0],"split_type":[0,0,0,0,0,0,0,0,0,0,0,0,0,0,0,0,0,0,0,0,0,0,0,0,0,0,0,0,0,0,0,0,0,0,0,0,0,0,0,0,0,0,0,0,0,0,0,0,0,0,0,0,0],"sum_hessian":[3.9E2,2.95E2,9.5E1,2.21E2,7.4E1,5E1,4.5E1,1.73E2,4.8E1,5.3E1,2.1E1,4.7E1,3E0,4E0,4.1E1,1.01E2,7.2E1,4.6E1,2E0,4.7E1,6E0,1.6E1,5E0,4.1E1,6E0,2E0,1E0,3E0,1E0,3.9E1,2E0,2E1,8.1E1,6.9E1,3E0,4.5E1,1E0,3.5E1,1.2E1,5E0,1E0,1.5E1,1E0,4E0,1E0,3.7E1,4E0,4E0,2E0,2E0,1E0,2.5E1,1.4E1],"tree_param":{"num_deleted":"0","num_feature":"13","num_nodes":"53","size_leaf_vector":"1"}},{"base_weights":[1.9665953E3,-1.8304658E5,5.4610375E5,-3.569237E5,1.5797881E5,2.081687E5,9.219438E5,-4.3502188E5,2.9118534E5,1.0101127E5,1.0526242E6,4.642057E5,-9.526508E4,5.969601E5,1.534601E6,-4.9710975E5,-6.9378086E4,3.6678375E4,8.313176E5,-9.850089E4,3.8777862E5,3.8632168E4,7.749812E4,2.911767E5,1.2711152E6,-4.230909E2,-4.935168E5,1.7042919E5,7.7499844E5,7.2906956E5,1.945013E6,-1.8865717E4,-3.1079135E4,-6.1487124E3,3.310305E4,1.0556342E4,-1.946668E4,2.0956281E4,5.178401E4,-9.501552E3,4.245396E3,8.403444E3,2.9954248E4,8.557862E3,-5.66045E3,1.0139432E4,4.5061117E4,7.138402E4,1.6121362E4,-5.2335405E3,8.0893516E3,-3.0991213E4,2.92825E2,-8.996338E3,1.6215175E4,1.6820541E4,4.248134E4,4.977262E4,2.10375E3,1.0550739E5,1.147E4],"categories":[],"categories_nodes":[],"categories_segments":[],"categories_sizes":[],"default_left":[0,0,0,0,0,0,0,0,0,0,0,0,0,0,0,0,0,0,0,0,0,0,0,0,0,0,0,0,0,0,0,0,0,0,0,0,0,0,0,0,0,0,0,0,0,0,0,0,0,0,0,0,0,0,0,0,0,0,0,0,0],"id":24,"left_children":[1,3,5,7,9,11,13,15,17,19,21,23,25,27,29,31,33,35,37,39,41,43,-1,45,47,49,51,53,55,57,59,-1,-1,-1,-1,-1,-1,-1,-1,-1,-1,-1,-1,-1,-1,-1,-1,-1,-1,-1,-1,-1,-1,-1,-1,-1,-1,-1,-1,-1,-1],"loss_changes":[4.0469652E13,1.7845342E13,1.2763049E13,1.0199283E13,5.092179E12,4.3171871E12,8.6408786E12,4.006479E12,2.993792E12,5.587914E12,2.965903E12,3.818444E12,9.8183676E11,2.3738995E12,3.871544E12,2.0319809E12,1.1398792E12,1.2712728E12,1.5557617E11,9.8980626E11,1.7563543E12,7.9744836E10,0E0,1.2191822E12,2.823338E11,3.889551E11,3.1900277E11,6.513695E11,4.669917E11,1.2391416E12,2.3490032E12,0E0,0E0,0E0,0E0,0E0,0E0,0E0,0E0,0E0,0E0,0E0,0E0,0E0,0E0,0E0,0E0,0E0,0E0,0E0,0E0,0E0,0E0,0E0,0E0,0E0,0E0,0E0,0E0,0E0,0E0],"parents":[2147483647,0,0,1,1,2,2,3,3,4,4,5,5,6,6,7,7,8,8,9,9,10,10,11,11,12,12,13,13,14,14,15,15,16,16,17,17,18,18,19,19,20,20,21,21,23,23,24,24,25,25,26,26,27,27,28,28,29,29,30,30],"right_children":[2,4,6,8,10,12,14,16,18,20,22,24,26,28,30,32,34,36,38,40,42,44,-1,46,48,50,52,54,56,58,60,-1,-1,-1,-1,-1,-1,-1,-1,-1,-1,-1,-1,-1,-1,-1,-1,-1,-1,-1,-1,-1,-1,-1,-1,-1,-1,-1,-1,-1,-1],"split_conditions":[1.4218117E0,1E0,1E0,1.3782169E0,1E0,1E0,1E0,1E0,3.5597563E-1,1E0,3.5597563E-1,1E0,1.5176924E0,3.5597563E-1,3.5597563E-1,1E0,1E0,1E0,2.5320237E0,1E0,3.5597563E-1,2.2441013E-1,7.749812E4,3.4138103E0,1.5176924E0,1E0,3.4138103E0,1.3782169E0,2.2441013E-1,1E0,1.3782169E0,-1.8865717E4,-3.1079135E4,-6.1487124E3,3.310305E4,1.0556342E4,-1.946668E4,2.0956281E4,5.178401E4,-9.501552E3,4.245396E3,8.403444E3,2.9954248E4,8.557862E3,-5.66045E3,1.0139432E4,4.5061117E4,7.138402E4,1.6121362E4,-5.2335405E3,8.0893516E3,-3.0991213E4,2.92825E2,-8.996338E3,1.6215175E4,1.6820541E4,4.248134E4,4.977262E4,2.10375E3,1.0550739E5,1.147E4],"split_indices":[2,6,8,3,7,6,10,10,9,10,9,10,9,9,9,12,7,10,3,5,9,3,0,2,9,12,2,3,3,12,3,0,0,0,0,0,0,0,0,0,0,0,0,0,0,0,0,0,0,0,0,0,0,0,0,0,0,0,0,0,0],"split_type":[0,0,0,0,0,0,0,0,0,0,0,0,0,0,0,0,0,0,0,0,0,0,0,0,0,0,0,0,0,0,0,0,0,0,0,0,0,0,0,0,0,0,0,0,0,0,0,0,0,0,0,0,0,0,0,0,0,0,0,0,0],"sum_hessian":[4E2,2.99E2,1.01E2,1.98E2,1.01E2,5.4E1,4.7E1,1.77E2,2.1E1,9.6E1,5E0,2.9E1,2.5E1,3.2E1,1.5E1,1.51E2,2.6E1,1.5E1,6E0,5.7E1,3.9E1,2E0,3E0,2.5E1,4E0,2.1E1,4E0,1E1,2.2E1,6E0,9E0,7.9E1,7.2E1,2.5E1,1E0,1.1E1,4E0,3E0,3E0,3.8E1,1.9E1,2E1,1.9E1,1E0,1E0,2.3E1,2E0,3E0,1E0,1.3E1,8E0,3E0,1E0,3E0,7E0,4E0,1.8E1,4E0,2E0,8E0,1E0],"tree_param":{"num_deleted":"0","num_feature":"13","num_nodes":"61","size_leaf_vector":"1"}},{"base_weights":[1.1163593E4,-2.2737545E5,5.1051753E5,-4.2906797E5,-7.297215E4,2.1121277E5,7.973635E5,-4.6240322E5,1.5606714E5,-1.9733698E5,1.9501316E5,1.4436136E5,7.61202E4,4.641527E5,1.021904E6,-4.959646E5,1.0228025E5,-2.6209363E4,3.568074E5,-3.177915E5,1.6241283E5,1.0494463E5,1.1820479E6,-1.0900791E5,4.7684034E5,7.317043E5,2.7486262E5,1.4267374E6,5.8621706E5,-2.8629463E4,-1.7678752E4,-2.0346623E4,4.5843734E4,-1.329125E2,2.146161E4,-1.0869586E4,-2.158374E4,3.2618318E3,3.524334E4,-1.1549872E3,1.5270405E4,7.206012E4,1.0114612E4,4.2378605E4,-1.1082687E4,2.694462E4,-2.8412812E4,2.5651904E4,5.7190082E4,3.2776204E3,2.6415318E4,4.7590652E4,1.2830814E5,8.984598E3,4.8738652E4],"categories":[],"categories_nodes":[],"categories_segments":[],"categories_sizes":[],"default_left":[0,0,0,0,0,0,0,0,0,0,0,0,0,0,0,0,0,0,0,0,0,0,0,0,0,0,0,0,0,0,0,0,0,0,0,0,0,0,0,0,0,0,0,0,0,0,0,0,0,0,0,0,0,0,0],"id":25,"left_children":[1,3,5,7,9,11,13,15,17,19,21,23,-1,25,27,29,31,-1,33,35,37,39,41,43,45,47,49,51,53,-1,-1,-1,-1,-1,-1,-1,-1,-1,-1,-1,-1,-1,-1,-1,-1,-1,-1,-1,-1,-1,-1,-1,-1,-1,-1],"loss_changes":[4.7166664E13,8.314743E12,1.0820946E13,2.334818E12,5.1376596E12,5.390141E12,4.3889365E12,2.1353978E12,1.1429151E12,4.6016296E12,4.2320879E12,5.2748574E12,0E0,1.216938E12,5.8660865E12,9.322449E11,3.2767187E12,0E0,1.5734637E11,8.0943304E11,1.3772841E12,1.1877928E12,7.2408787E11,4.0670383E12,2.0571887E12,4.0441636E11,9.2023895E11,7.8391626E12,2.9839962E12,0E0,0E0,0E0,0E0,0E0,0E0,0E0,0E0,0E0,0E0,0E0,0E0,0E0,0E0,0E0,0E0,0E0,0E0,0E0,0E0,0E0,0E0,0E0,0E0,0E0,0E0],"parents":[2147483647,0,0,1,1,2,2,3,3,4,4,5,5,6,6,7,7,8,8,9,9,10,10,11,11,13,13,14,14,15,15,16,16,18,18,19,19,20,20,21,21,22,22,23,23,24,24,25,25,26,26,27,27,28,28],"right_children":[2,4,6,8,10,12,14,16,18,20,22,24,-1,26,28,30,32,-1,34,36,38,40,42,44,46,48,50,52,54,-1,-1,-1,-1,-1,-1,-1,-1,-1,-1,-1,-1,-1,-1,-1,-1,-1,-1,-1,-1,-1,-1,-1,-1,-1,-1],"split_conditions":[3.917898E-1,-6.9208395E-1,1E0,1E0,1E0,3.7125945E0,6.454624E-1,1E0,1E0,1E0,1E0,1E0,7.61202E4,4.0101427E-1,1.1297464E0,1E0,1.5176924E0,-2.6209363E4,-1.3719265E0,1E0,1E0,3.5597563E-1,-3.7384018E-1,4.0101427E-1,2.6794093E0,1E0,1E0,9.729306E-1,1.544847E0,-2.8629463E4,-1.7678752E4,-2.0346623E4,4.5843734E4,-1.329125E2,2.146161E4,-1.0869586E4,-2.158374E4,3.2618318E3,3.524334E4,-1.1549872E3,1.5270405E4,7.206012E4,1.0114612E4,4.2378605E4,-1.1082687E4,2.694462E4,-2.8412812E4,2.5651904E4,5.7190082E4,3.2776204E3,2.6415318E4,4.7590652E4,1.2830814E5,8.984598E3,4.8738652E4],"split_indices":[0,0,8,5,6,0,0,7,6,8,7,10,0,0,0,11,9,0,0,12,10,9,0,0,9,11,10,0,0,0,0,0,0,0,0,0,0,0,0,0,0,0,0,0,0,0,0,0,0,0,0,0,0,0,0],"split_type":[0,0,0,0,0,0,0,0,0,0,0,0,0,0,0,0,0,0,0,0,0,0,0,0,0,0,0,0,0,0,0,0,0,0,0,0,0,0,0,0,0,0,0,0,0,0,0,0,0,0,0,0,0,0,0],"sum_hessian":[3.94E2,2.67E2,1.27E2,1.15E2,1.52E2,6.3E1,6.4E1,1.09E2,6E0,1.04E2,4.8E1,6.1E1,2E0,2.7E1,3.7E1,1.03E2,6E0,1E0,5E0,7.8E1,2.6E1,4.5E1,3E0,3.5E1,2.6E1,1E1,1.7E1,1.8E1,1.9E1,6.5E1,3.8E1,4E0,2E0,1E0,4E0,4.3E1,3.5E1,2.3E1,3E0,2.8E1,1.7E1,2E0,1E0,3E0,3.2E1,2.5E1,1E0,8E0,2E0,1E1,7E0,1.4E1,4E0,1E1,9E0],"tree_param":{"num_deleted":"0","num_feature":"13","num_nodes":"55","size_leaf_vector":"1"}},{"base_weights":[2.9762852E3,-1.7223972E5,5.0282806E5,-3.060782E5,1.1150768E5,1.8173E5,8.602774E5,-4.006083E5,3.9595712E5,-3.9687754E4,4.056891E5,3.8134034E5,-3.9397035E4,5.610296E5,1.4237085E6,-2.602321E5,-5.6789794E5,6.391938E5,-8.0458914E4,-1.1566514E5,8.64783E5,2.395833E5,5.779701E5,2.5183619E5,5.6389113E4,-2.3507425E5,3.1676166E5,4.506176E5,1.0235537E5,7.047918E5,8.432084E4,-1.5372538E4,-9.970677E2,-2.9875076E4,-8.902371E3,2.1533494E4,3.96942E4,-1.1734102E4,2.883315E4,-1.0138437E4,2.580325E3,8.620976E3,4.973845E4,2.1481523E4,8.9969444E1,3.671816E4,1.1049329E4,3.068827E4,2.844035E3,-2.7552266E4,-3.5579402E3,2.8148953E4,-9.665463E3,1.5038174E4,4.0007996E4,1.44060205E4,6.970373E4],"categories":[],"categories_nodes":[],"categories_segments":[],"categories_sizes":[],"default_left":[0,0,0,0,0,0,0,0,0,0,0,0,0,0,0,0,0,0,0,0,0,0,0,0,0,0,0,0,0,0,0,0,0,0,0,0,0,0,0,0,0,0,0,0,0,0,0,0,0,0,0,0,0,0,0,0,0],"id":26,"left_children":[1,3,5,7,9,11,13,15,17,19,21,23,25,27,29,31,33,35,37,39,41,43,45,47,-1,49,51,53,-1,55,-1,-1,-1,-1,-1,-1,-1,-1,-1,-1,-1,-1,-1,-1,-1,-1,-1,-1,-1,-1,-1,-1,-1,-1,-1,-1,-1],"loss_changes":[3.4418763E13,1.1085239E13,1.1550845E13,1.3298592E13,4.1971163E12,2.4426822E12,7.2943183E12,3.9618263E12,2.8325933E12,4.429343E12,7.77268E11,2.519336E12,1.9561502E12,4.4922055E12,1.8332716E12,1.0944507E12,8.053504E11,1.742036E11,1.0474229E12,8.700917E11,2.7847033E11,8.126498E11,6.7516183E11,1.7996507E12,0E0,8.930538E11,1.3647125E12,1.4355126E12,0E0,1.3215649E12,0E0,0E0,0E0,0E0,0E0,0E0,0E0,0E0,0E0,0E0,0E0,0E0,0E0,0E0,0E0,0E0,0E0,0E0,0E0,0E0,0E0,0E0,0E0,0E0,0E0,0E0,0E0],"parents":[2147483647,0,0,1,1,2,2,3,3,4,4,5,5,6,6,7,7,8,8,9,9,10,10,11,11,12,12,13,13,14,14,15,15,16,16,17,17,18,18,19,19,20,20,21,21,22,22,23,23,25,25,26,26,27,27,29,29],"right_children":[2,4,6,8,10,12,14,16,18,20,22,24,26,28,30,32,34,36,38,40,42,44,46,48,-1,50,52,54,-1,56,-1,-1,-1,-1,-1,-1,-1,-1,-1,-1,-1,-1,-1,-1,-1,-1,-1,-1,-1,-1,-1,-1,-1,-1,-1,-1,-1],"split_conditions":[1.4218117E0,1E0,1E0,1.3782169E0,1E0,1E0,1E0,1E0,1E0,1E0,1E0,1E0,1E0,3.4138103E0,2.2441013E-1,1E0,1E0,2.5320237E0,2.5320237E0,1E0,2.2441013E-1,2.2441013E-1,1E0,1E0,5.6389113E4,1E0,1E0,1E0,1.0235537E5,3.4138103E0,8.432084E4,-1.5372538E4,-9.970677E2,-2.9875076E4,-8.902371E3,2.1533494E4,3.96942E4,-1.1734102E4,2.883315E4,-1.0138437E4,2.580325E3,8.620976E3,4.973845E4,2.1481523E4,8.9969444E1,3.671816E4,1.1049329E4,3.068827E4,2.844035E3,-2.7552266E4,-3.5579402E3,2.8148953E4,-9.665463E3,1.5038174E4,4.0007996E4,1.44060205E4,6.970373E4],"split_indices":[2,6,8,3,10,6,10,12,10,7,8,10,12,2,3,10,10,3,3,5,3,3,11,11,0,11,10,5,0,2,0,0,0,0,0,0,0,0,0,0,0,0,0,0,0,0,0,0,0,0,0,0,0,0,0,0,0],"split_type":[0,0,0,0,0,0,0,0,0,0,0,0,0,0,0,0,0,0,0,0,0,0,0,0,0,0,0,0,0,0,0,0,0,0,0,0,0,0,0,0,0,0,0,0,0,0,0,0,0,0,0,0,0,0,0,0,0],"sum_hessian":[3.91E2,2.9E2,1.01E2,1.97E2,9.3E1,5.4E1,4.7E1,1.74E2,2.3E1,6.2E1,3.1E1,2.8E1,2.6E1,3.2E1,1.5E1,9.6E1,7.8E1,1.5E1,8E0,5.8E1,4E0,1.7E1,1.4E1,2.5E1,3E0,1.7E1,9E0,3.1E1,1E0,5E0,1E1,8E1,1.6E1,7.2E1,6E0,8E0,7E0,7E0,1E0,3.8E1,2E1,1E0,3E0,9E0,8E0,9E0,5E0,8E0,1.7E1,5E0,1.2E1,6E0,3E0,2.3E1,8E0,4E0,1E0],"tree_param":{"num_deleted":"0","num_feature":"13","num_nodes":"57","size_leaf_vector":"1"}},{"base_weights":[4.3532734E4,-2.0857034E5,5.512825E5,-4.3442675E5,-1.0141667E5,4.8928953E5,1.19087E5,-4.7554747E5,1.794007E5,-1.8359111E5,2.3009823E5,3.088534E5,7.7021125E5,-6.260007E5,-3.806712E5,-9.333325E4,1.695505E4,-6.990237E4,-3.558897E5,9.092596E4,1.3275708E5,1.3926495E5,5.1807128E5,5.337881E5,1.0863354E6,-3.491815E4,-1.1610917E4,-2.496485E4,-1.0080272E4,-1.941E2,-6.805894E3,-4.9722466E3,1.7521008E4,-2.030692E4,3.052475E3,-8.678729E3,3.0232635E4,1.3769518E4,-1.5326085E4,1.537775E4,4.4796562E4,3.185263E4,1.317769E4,4.1164734E4,7.814406E4],"categories":[],"categories_nodes":[],"categories_segments":[],"categories_sizes":[],"default_left":[0,0,0,0,0,0,0,0,0,0,0,0,0,0,0,0,0,0,0,0,0,0,0,0,0,0,0,0,0,0,0,0,0,0,0,0,0,0,0,0,0,0,0,0,0],"id":27,"left_children":[1,3,5,7,9,11,-1,13,15,17,19,21,23,25,27,29,-1,31,33,-1,35,37,39,41,43,-1,-1,-1,-1,-1,-1,-1,-1,-1,-1,-1,-1,-1,-1,-1,-1,-1,-1,-1,-1],"loss_changes":[5.016505E13,6.2966936E12,1.3586466E13,2.205558E12,4.918571E12,6.199546E12,0E0,8.893833E11,2.929836E11,2.7958533E12,5.324853E12,2.7308442E12,3.0823416E12,6.641817E11,9.826714E11,1.0953005E10,0E0,1.1275791E12,1.2189822E12,0E0,5.164432E12,2.8151424E12,2.5085503E12,6.692704E11,1.2203055E12,0E0,0E0,0E0,0E0,0E0,0E0,0E0,0E0,0E0,0E0,0E0,0E0,0E0,0E0,0E0,0E0,0E0,0E0,0E0,0E0],"parents":[2147483647,0,0,1,1,2,2,3,3,4,4,5,5,7,7,8,8,9,9,10,10,11,11,12,12,13,13,14,14,15,15,17,17,18,18,20,20,21,21,22,22,23,23,24,24],"right_children":[2,4,6,8,10,12,-1,14,16,18,20,22,24,26,28,30,-1,32,34,-1,36,38,40,42,44,-1,-1,-1,-1,-1,-1,-1,-1,-1,-1,-1,-1,-1,-1,-1,-1,-1,-1,-1,-1],"split_conditions":[3.917898E-1,-7.612674E-1,3.4138103E0,1E0,1.4218117E0,1.4218117E0,1.19087E5,1E0,-1.3262655E0,1E0,-7.5665516E-1,1E0,1E0,1.4218117E0,1E0,-1.3719265E0,1.695505E4,1E0,1E0,9.092596E4,1E0,1E0,1E0,1E0,1.0753222E0,-3.491815E4,-1.1610917E4,-2.496485E4,-1.0080272E4,-1.941E2,-6.805894E3,-4.9722466E3,1.7521008E4,-2.030692E4,3.052475E3,-8.678729E3,3.0232635E4,1.3769518E4,-1.5326085E4,1.537775E4,4.4796562E4,3.185263E4,1.317769E4,4.1164734E4,7.814406E4],"split_indices":[0,0,2,5,2,2,0,4,0,12,0,8,10,2,11,0,0,7,8,0,8,12,5,11,0,0,0,0,0,0,0,0,0,0,0,0,0,0,0,0,0,0,0,0,0],"split_type":[0,0,0,0,0,0,0,0,0,0,0,0,0,0,0,0,0,0,0,0,0,0,0,0,0,0,0,0,0,0,0,0,0,0,0,0,0,0,0,0,0,0,0,0,0],"sum_hessian":[3.9E2,2.61E2,1.29E2,8.3E1,1.78E2,1.26E2,3E0,7.8E1,5E0,1.43E2,3.5E1,7.8E1,4.8E1,2.8E1,5E1,2E0,3E0,8.7E1,5.6E1,1E0,3.4E1,4.4E1,3.4E1,2.9E1,1.9E1,2.3E1,5E0,2.9E1,2.1E1,1E0,1E0,8.2E1,5E0,5E1,6E0,2.1E1,1.3E1,3.4E1,1E1,2.3E1,1.1E1,2E1,9E0,1.4E1,5E0],"tree_param":{"num_deleted":"0","num_feature":"13","num_nodes":"45","size_leaf_vector":"1"}},{"base_weights":[4.105357E4,-1.0947259E5,4.6837984E5,-2.4839306E5,1.7390764E5,-4.38536E5,5.3027494E5,-4.014342E5,-1.580328E5,8.5318695E4,7.261365E5,-3.785474E4,-1.5969355E5,2.5418758E5,6.9442675E5,-4.5431744E5,-1.0356502E5,-2.637441E5,-1.807307E4,5.5252152E4,5.433064E5,1.0592665E6,-1.87249E4,-2.1692644E5,1.7309501E3,1.9973842E5,8.046985E5,9.225692E5,3.2327856E5,-1.8085611E4,-2.6464E4,2.7748718E3,-1.6867598E4,-1.2357846E4,-3.520652E4,-2.9424841E3,2.531735E4,-2.2183289E3,1.0546585E4,1.7869541E3,4.3488574E4,2.0375488E4,1.1134718E5,-1.7512412E4,3.2684213E4,-1.6356875E3,-1.3371305E4,1.9286521E4,-2.2617595E3,-7.086825E3,6.743921E4,3.97592E4,8.714277E4,5.9552515E3,4.5797418E4],"categories":[],"categories_nodes":[],"categories_segments":[],"categories_sizes":[],"default_left":[0,0,0,0,0,0,0,0,0,0,0,0,0,0,0,0,0,0,0,0,0,0,0,0,0,0,0,0,0,0,0,0,0,0,0,0,0,0,0,0,0,0,0,0,0,0,0,0,0,0,0,0,0,0,0],"id":28,"left_children":[1,3,5,7,9,11,13,15,17,19,21,-1,23,25,27,29,31,33,35,37,39,41,43,45,-1,47,49,51,53,-1,-1,-1,-1,-1,-1,-1,-1,-1,-1,-1,-1,-1,-1,-1,-1,-1,-1,-1,-1,-1,-1,-1,-1,-1,-1],"loss_changes":[2.494458E13,1.1341617E13,5.90204E12,2.6055247E12,4.585577E12,5.0089086E11,4.1289085E12,1.07136156E12,1.815058E12,1.1128998E12,3.2455996E12,0E0,6.3115125E10,9.483405E11,4.6975597E12,2.2506845E11,4.6496278E11,3.3730383E11,1.1845383E12,1.2345375E12,7.9743E11,5.941871E12,1.3435484E12,2.8462186E10,0E0,1.6121578E12,1.7359974E12,2.3758341E12,2.795086E12,0E0,0E0,0E0,0E0,0E0,0E0,0E0,0E0,0E0,0E0,0E0,0E0,0E0,0E0,0E0,0E0,0E0,0E0,0E0,0E0,0E0,0E0,0E0,0E0,0E0,0E0],"parents":[2147483647,0,0,1,1,2,2,3,3,4,4,5,5,6,6,7,7,8,8,9,9,10,10,12,12,13,13,14,14,15,15,16,16,17,17,18,18,19,19,20,20,21,21,22,22,23,23,25,25,26,26,27,27,28,28],"right_children":[2,4,6,8,10,12,14,16,18,20,22,-1,24,26,28,30,32,34,36,38,40,42,44,46,-1,48,50,52,54,-1,-1,-1,-1,-1,-1,-1,-1,-1,-1,-1,-1,-1,-1,-1,-1,-1,-1,-1,-1,-1,-1,-1,-1,-1,-1],"split_conditions":[1.4218117E0,1E0,4.727831E-2,4.727831E-2,1.4034194E0,1E0,3.5597563E-1,1E0,3.5597563E-1,1E0,1E0,-3.785474E4,1E0,3.4138103E0,1E0,1E0,3.5597563E-1,2.7595603E0,1E0,1E0,3.5597563E-1,1.5176924E0,1E0,1E0,1.7309501E3,1.4034194E0,2.7595603E0,2.6794093E0,1E0,-1.8085611E4,-2.6464E4,2.7748718E3,-1.6867598E4,-1.2357846E4,-3.520652E4,-2.9424841E3,2.531735E4,-2.2183289E3,1.0546585E4,1.7869541E3,4.3488574E4,2.0375488E4,1.1134718E5,-1.7512412E4,3.2684213E4,-1.6356875E3,-1.3371305E4,1.9286521E4,-2.2617595E3,-7.086825E3,6.743921E4,3.97592E4,8.714277E4,5.9552515E3,4.5797418E4],"split_indices":[2,6,1,1,1,11,9,10,9,7,11,0,5,2,11,12,9,1,5,10,9,9,10,6,0,1,1,9,10,0,0,0,0,0,0,0,0,0,0,0,0,0,0,0,0,0,0,0,0,0,0,0,0,0,0],"split_type":[0,0,0,0,0,0,0,0,0,0,0,0,0,0,0,0,0,0,0,0,0,0,0,0,0,0,0,0,0,0,0,0,0,0,0,0,0,0,0,0,0,0,0,0,0,0,0,0,0,0,0,0,0,0,0],"sum_hessian":[3.86E2,2.86E2,1E2,1.92E2,9.4E1,6E0,9.4E1,7E1,1.22E2,8.2E1,1.2E1,2E0,4E0,3.6E1,5.8E1,5.9E1,1.1E1,6.9E1,5.3E1,7.8E1,4E0,8E0,4E0,3E0,1E0,3.4E1,2E0,3.5E1,2.3E1,2.9E1,3E1,7E0,4E0,6.8E1,1E0,5E1,3E0,4.8E1,3E1,2E0,2E0,6E0,2E0,3E0,1E0,1E0,2E0,1.9E1,1.5E1,1E0,1E0,3.2E1,3E0,1.8E1,5E0],"tree_param":{"num_deleted":"0","num_feature":"13","num_nodes":"55","size_leaf_vector":"1"}},{"base_weights":[3.3461203E4,-1.8425211E5,4.7688106E5,-4.2580697E5,-7.7913016E4,4.184417E5,1.121165E5,-6.3649106E5,-2.7823934E5,-3.0502956E5,3.6263617E4,1.8042092E5,6.1648175E5,-6.660636E5,7.7458125E3,-4.7501247E5,-1.0666714E5,2.7125584E4,-3.341313E5,-5.7324887E4,3.0175016E5,2.637154E4,6.024085E5,7.544532E5,-4.6504652E4,-3.944475E4,-2.5563873E4,-1.8845342E4,-4.2339383E4,-1.5212911E4,1.0004451E3,-1.1860116E4,1.8526045E4,-2.8112154E4,-1.2786904E4,2.6137512E3,-1.217863E4,8.7658836E4,1.0080315E4,-8.354214E3,1.4994724E4,8.980575E4,1.5179253E4,2.694167E4,6.4338902E4,-1.0450603E4,1.85695E4],"categories":[],"categories_nodes":[],"categories_segments":[],"categories_sizes":[],"default_left":[0,0,0,0,0,0,0,0,0,0,0,0,0,0,0,0,0,0,0,0,0,0,0,0,0,0,0,0,0,0,0,0,0,0,0,0,0,0,0,0,0,0,0,0,0,0,0],"id":29,"left_children":[1,3,5,7,9,11,-1,13,15,17,19,21,23,25,-1,27,29,31,33,35,37,39,41,43,45,-1,-1,-1,-1,-1,-1,-1,-1,-1,-1,-1,-1,-1,-1,-1,-1,-1,-1,-1,-1,-1,-1],"loss_changes":[3.870323E13,6.876552E12,1.2680381E13,2.3722952E12,4.886166E12,5.9695306E12,0E0,8.755159E11,1.6373716E12,6.1804066E11,3.1479554E12,3.8845292E12,6.4382063E12,2.0505952E11,0E0,5.1972512E11,7.0692936E11,6.325022E11,8.9339304E11,1.9315297E12,4.4431463E12,2.431265E12,5.162046E12,5.9638725E12,9.604676E11,0E0,0E0,0E0,0E0,0E0,0E0,0E0,0E0,0E0,0E0,0E0,0E0,0E0,0E0,0E0,0E0,0E0,0E0,0E0,0E0,0E0,0E0],"parents":[2147483647,0,0,1,1,2,2,3,3,4,4,5,5,7,7,8,8,9,9,10,10,11,11,12,12,13,13,15,15,16,16,17,17,18,18,19,19,20,20,21,21,22,22,23,23,24,24],"right_children":[2,4,6,8,10,12,-1,14,16,18,20,22,24,26,-1,28,30,32,34,36,38,40,42,44,46,-1,-1,-1,-1,-1,-1,-1,-1,-1,-1,-1,-1,-1,-1,-1,-1,-1,-1,-1,-1,-1,-1],"split_conditions":[3.917898E-1,-7.612674E-1,3.4138103E0,2.2441013E-1,4.727831E-2,2.2441013E-1,1.121165E5,1E0,1E0,-7.289818E-1,1.4218117E0,1.4858105E0,1.7178056E0,-9.752748E-1,7.7458125E3,1.4034194E0,1E0,-7.5204295E-1,-6.9208395E-1,1E0,-7.5665516E-1,1E0,1.7570095E0,9.5955515E-1,1.3782169E0,-3.944475E4,-2.5563873E4,-1.8845342E4,-4.2339383E4,-1.5212911E4,1.0004451E3,-1.1860116E4,1.8526045E4,-2.8112154E4,-1.2786904E4,2.6137512E3,-1.217863E4,8.7658836E4,1.0080315E4,-8.354214E3,1.4994724E4,8.980575E4,1.5179253E4,2.694167E4,6.4338902E4,-1.0450603E4,1.85695E4],"split_indices":[0,0,2,3,1,3,0,5,11,0,2,0,0,0,0,1,4,0,0,12,0,5,0,0,3,0,0,0,0,0,0,0,0,0,0,0,0,0,0,0,0,0,0,0,0,0,0],"split_type":[0,0,0,0,0,0,0,0,0,0,0,0,0,0,0,0,0,0,0,0,0,0,0,0,0,0,0,0,0,0,0,0,0,0,0,0,0,0,0,0,0,0,0,0,0,0,0],"sum_hessian":[3.99E2,2.68E2,1.31E2,8.1E1,1.87E2,1.28E2,3E0,3.2E1,4.9E1,6.2E1,1.25E2,5.9E1,6.9E1,3.1E1,1E0,2.2E1,2.7E1,5E0,5.7E1,9.3E1,3.2E1,4.4E1,1.5E1,5.7E1,1.2E1,1.5E1,1.6E1,1.9E1,3E0,1E1,1.7E1,3E0,2E0,1.3E1,4.4E1,5.9E1,3.4E1,1E0,3.1E1,2.6E1,1.8E1,2E0,1.3E1,4.2E1,1.5E1,9E0,3E0],"tree_param":{"num_deleted":"0","num_feature":"13","num_nodes":"47","size_leaf_vector":"1"}},{"base_weights":[2.983379E4,-1.3848803E5,4.1452194E5,-4.7879847E5,-5.842222E4,1.96749E5,7.3494394E5,-5.1941634E5,1.4862438E5,-3.1343056E5,5.4925926E4,4.9389832E4,5.663036E5,-1.7451006E4,8.3905225E5,-2.7969541E4,-1.3303833E5,-4.64625E4,1.8347125E4,-4.4350666E5,1.1818938E5,7.6020874E3,7.545585E5,-1.8881905E5,1.14718125E5,2.785505E5,1.1020169E6,6.0709594E5,1.1853865E6,-1.165411E4,9.179525E3,1.6936238E4,-2.0420926E4,-2.4336242E4,-6.7080703E3,1.28538E4,-3.078201E4,-4.685891E2,4.1839387E4,1.59007E4,8.335788E4,-1.7110709E4,4.71885E3,1.4271675E3,1.4559211E4,1.930314E4,6.8109688E3,-2.352475E3,6.5068477E4,-1.275125E3,3.1529975E4,3.980756E4,6.8911805E4],"categories":[],"categories_nodes":[],"categories_segments":[],"categories_sizes":[],"default_left":[0,0,0,0,0,0,0,0,0,0,0,0,0,0,0,0,0,0,0,0,0,0,0,0,0,0,0,0,0,0,0,0,0,0,0,0,0,0,0,0,0,0,0,0,0,0,0,0,0,0,0,0,0],"id":30,"left_children":[1,3,5,7,9,11,13,15,17,19,21,23,25,-1,27,-1,29,31,-1,33,35,37,39,41,43,45,47,49,51,-1,-1,-1,-1,-1,-1,-1,-1,-1,-1,-1,-1,-1,-1,-1,-1,-1,-1,-1,-1,-1,-1,-1,-1],"loss_changes":[2.5957973E13,7.574007E12,8.368467E12,1.4278805E12,6.5785865E12,4.0018672E12,5.8224825E12,6.9784306E11,1.8741307E11,3.9824597E12,5.225533E12,8.6199704E11,2.9302483E12,0E0,2.8954056E12,0E0,2.3285229E11,5.56604E11,0E0,6.566445E11,1.8908911E12,2.104941E12,3.453722E12,5.5358797E11,6.455864E11,1.7694589E11,1.664715E12,4.472638E11,1.7880108E11,0E0,0E0,0E0,0E0,0E0,0E0,0E0,0E0,0E0,0E0,0E0,0E0,0E0,0E0,0E0,0E0,0E0,0E0,0E0,0E0,0E0,0E0,0E0,0E0],"parents":[2147483647,0,0,1,1,2,2,3,3,4,4,5,5,6,6,7,7,8,8,9,9,10,10,11,11,12,12,14,14,16,16,17,17,19,19,20,20,21,21,22,22,23,23,24,24,25,25,26,26,27,27,28,28],"right_children":[2,4,6,8,10,12,14,16,18,20,22,24,26,-1,28,-1,30,32,-1,34,36,38,40,42,44,46,48,50,52,-1,-1,-1,-1,-1,-1,-1,-1,-1,-1,-1,-1,-1,-1,-1,-1,-1,-1,-1,-1,-1,-1,-1,-1],"split_conditions":[1E0,1E0,1.4218117E0,1E0,4.727831E-2,1E0,1E0,1.4218117E0,4.727831E-2,1E0,1E0,4.727831E-2,1.4034194E0,-1.7451006E4,1E0,-2.7969541E4,2.7595603E0,1.4218117E0,1.8347125E4,1E0,1.4218117E0,3.4138103E0,1.4034194E0,1E0,1E0,1E0,1E0,4.727831E-2,1E0,-1.165411E4,9.179525E3,1.6936238E4,-2.0420926E4,-2.4336242E4,-6.7080703E3,1.28538E4,-3.078201E4,-4.685891E2,4.1839387E4,1.59007E4,8.335788E4,-1.7110709E4,4.71885E3,1.4271675E3,1.4559211E4,1.930314E4,6.8109688E3,-2.352475E3,6.5068477E4,-1.275125E3,3.1529975E4,3.980756E4,6.8911805E4],"split_indices":[8,4,2,5,1,5,4,2,1,6,7,1,1,0,10,0,1,2,0,10,2,2,1,11,6,11,6,1,6,0,0,0,0,0,0,0,0,0,0,0,0,0,0,0,0,0,0,0,0,0,0,0,0],"split_type":[0,0,0,0,0,0,0,0,0,0,0,0,0,0,0,0,0,0,0,0,0,0,0,0,0,0,0,0,0,0,0,0,0,0,0,0,0,0,0,0,0,0,0,0,0,0,0,0,0,0,0,0,0],"sum_hessian":[3.99E2,2.78E2,1.21E2,5.2E1,2.26E2,7.3E1,4.8E1,4.9E1,3E0,6.9E1,1.57E2,5.3E1,2E1,4E0,4.4E1,4.4E1,5E0,2E0,1E0,5.3E1,1.6E1,1.48E2,9E0,1.1E1,4.2E1,1.4E1,6E0,2.8E1,1.6E1,4E0,1E0,1E0,1E0,4.6E1,7E0,1.4E1,2E0,1.46E2,2E0,7E0,2E0,7E0,4E0,2.9E1,1.3E1,7E0,7E0,1E0,5E0,1E0,2.7E1,7E0,9E0],"tree_param":{"num_deleted":"0","num_feature":"13","num_nodes":"53","size_leaf_vector":"1"}},{"base_weights":[2.3475822E4,-1.1419899E5,4.1529766E5,-2.4355916E5,1.5770116E5,1.3873392E5,7.0540956E5,-3.256264E5,3.5378478E5,1.0484044E5,5.233945E5,-4.530764E5,2.0697648E5,-1.6752967E4,8.0108906E5,-3.7517047E5,-5.42824E3,1.1142228E5,7.722712E5,-2.2904992E5,1.4202214E5,7.160288E5,-4.0881375E4,-2.822804E5,-3.2676412E4,9.175796E4,5.278479E5,7.030371E5,1.002419E5,-2.786124E4,-1.5970477E4,-9.302558E3,8.780611E3,1.34632295E4,-7.626656E3,4.4013668E4,-2.2936626E3,-2.398244E4,1.0205544E4,9.044364E3,5.907631E2,8.267663E3,4.8190387E4,-1.6005667E4,1.9920363E4,-7.687325E3,-1.99104E4,-5.0454453E2,2.7212223E4,1.2642133E4,5.4169945E4,2.5607441E4,5.2533527E4],"categories":[],"categories_nodes":[],"categories_segments":[],"categories_sizes":[],"default_left":[0,0,0,0,0,0,0,0,0,0,0,0,0,0,0,0,0,0,0,0,0,0,0,0,0,0,0,